{"learner":{"attributes":{"scikit_learn":"{\"_estimator_type\": \"classifier\"}"},"feature_names":[],"feature_types":[],"gradient_booster":{"model":{"gbtree_model_param":{"num_parallel_tree":"1","num_trees":"100"},"iteration_indptr":[0,1,2,3,4,5,6,7,8,9,10,11,12,13,14,15,16,17,18,19,20,21,22,23,24,25,26,27,28,29,30,31,32,33,34,35,36,37,38,39,40,41,42,43,44,45,46,47,48,49,50,51,52,53,54,55,56,57,58,59,60,61,62,63,64,65,66,67,68,69,70,71,72,73,74,75,76,77,78,79,80,81,82,83,84,85,86,87,88,89,90,91,92,93,94,95,96,97,98,99,100],"tree_info":[0,0,0,0,0,0,0,0,0,0,0,0,0,0,0,0,0,0,0,0,0,0,0,0,0,0,0,0,0,0,0,0,0,0,0,0,0,0,0,0,0,0,0,0,0,0,0,0,0,0,0,0,0,0,0,0,0,0,0,0,0,0,0,0,0,0,0,0,0,0,0,0,0,0,0,0,0,0,0,0,0,0,0,0,0,0,0,0,0,0,0,0,0,0,0,0,0,0,0,0],"trees":[{"base_weights":[1.7060852E-3,-4.3569203E-3,1.5125807E-1,-1.0905509E0,1.998792E-3,-2.1450272E-2,-1.157007E-1,5.807868E-4,-1.1393436E-1],"categories":[],"categories_nodes":[],"categories_segments":[],"categories_sizes":[],"default_left":[1,0,0,0,1,0,0,0,0],"id":0,"left_children":[1,3,-1,5,7,-1,-1,-1,-1],"loss_changes":[2.2918037E1,1.7206686E1,0E0,5.959549E-1,1.0782361E1,0E0,0E0,0E0,0E0],"parents":[2147483647,0,0,1,1,3,3,4,4],"right_children":[2,4,-1,6,8,-1,-1,-1,-1],"split_conditions":[1.7263222E-1,8.4203887E-1,1.5125807E-1,3.2991984E-1,1.9462678E-1,-2.1450272E-2,-1.157007E-1,5.807868E-4,-1.1393436E-1],"split_indices":[2740,3034,0,3010,11038,0,0,0,0],"split_type":[0,0,0,0,0,0,0,0,0],"sum_hessian":[2.5001294E3,2.4911296E3,8.999565E0,1.3499349E1,2.4776304E3,1.2499397E0,1.2249409E1,2.4703806E3,7.24965E0],"tree_param":{"num_deleted":"0","num_feature":"21658","num_nodes":"9","size_leaf_vector":"1"}},{"base_weights":[-1.8790155E-3,2.2163715E-2,-8.203742E-1,1.7174931E-2,1.3427788E0,5.5394944E-2,-8.6249703E-1,2.1196133E-3,-1.3415456E-1,1.4641749E-2,1.5112223E-1,-9.001047E-2,6.7408584E-2],"categories":[],"categories_nodes":[],"categories_segments":[],"categories_sizes":[],"default_left":[1,1,0,1,0,0,1,0,0,0,0,0,0],"id":1,"left_children":[1,3,5,7,9,-1,11,-1,-1,-1,-1,-1,-1],"loss_changes":[4.9648506E1,1.6124884E1,4.6455765E0,1.3375167E1,1.6349659E0,0E0,4.6659966E0,0E0,0E0,0E0,0E0,0E0,0E0],"parents":[2147483647,0,0,1,1,2,2,3,3,4,4,6,6],"right_children":[2,4,6,8,10,-1,12,-1,-1,-1,-1,-1,-1],"split_conditions":[1.2290221E-1,1.7263222E-1,1.83888E-1,2.2960308E-1,2.800554E-1,5.5394944E-2,1.7790405E-1,2.1196133E-3,-1.3415456E-1,1.4641749E-2,1.5112223E-1,-9.001047E-2,6.7408584E-2],"split_indices":[20754,2740,19883,3034,14230,0,11493,0,0,0,0,0,0],"split_type":[0,0,0,0,0,0,0,0,0,0,0,0,0],"sum_hessian":[2.5210122E3,2.4500176E3,7.0994644E1,2.4418062E3,8.211212E0,1.7499223E0,6.924473E1,2.4355825E3,6.2238264E0,1.244123E0,6.9670887E0,6.799478E1,1.2499444E0],"tree_param":{"num_deleted":"0","num_feature":"21658","num_nodes":"13","size_leaf_vector":"1"}},{"base_weights":[4.337203E-3,2.667054E-2,-8.253511E-1,1.17249385E-1,2.2770043E-2,7.2509766E-2,-8.666672E-1,-8.722829E-2,2.8084228E-3,7.2509766E-2,-9.096162E-2],"categories":[],"categories_nodes":[],"categories_segments":[],"categories_sizes":[],"default_left":[1,0,0,0,0,0,0,0,0,0,0],"id":2,"left_children":[1,3,5,-1,7,-1,9,-1,-1,-1,-1],"loss_changes":[4.6359066E1,1.0860961E1,4.829357E0,0E0,1.1577339E1,0E0,5.057682E0,0E0,0E0,0E0,0E0],"parents":[2147483647,0,0,1,1,2,2,4,4,6,6],"right_children":[2,4,6,-1,8,-1,10,-1,-1,-1,-1],"split_conditions":[1.4340515E-1,1.1378161E0,3.7972516E-1,1.17249385E-1,8.4203887E-1,7.2509766E-2,3.362822E-1,-8.722829E-2,2.8084228E-3,7.2509766E-2,-9.096162E-2],"split_indices":[20754,16584,9125,0,3034,0,16238,0,0,0,0],"split_type":[0,0,0,0,0,0,0,0,0,0,0],"sum_hessian":[2.49969E3,2.43511E3,6.457981E1,7.2448235E0,2.4278652E3,1.246669E0,6.3333145E1,1.3366942E1,2.4144983E3,1.246669E0,6.2086475E1],"tree_param":{"num_deleted":"0","num_feature":"21658","num_nodes":"11","size_leaf_vector":"1"}},{"base_weights":[-8.156155E-3,1.1680864E-2,-7.670661E-1,7.4116294E-3,1.2148783E0,-8.10171E-1,7.783266E-2,3.9071E-4,1.4257056E-1,1.2202754E-2,1.381981E-1,2.6487783E-2,-8.4534995E-2],"categories":[],"categories_nodes":[],"categories_segments":[],"categories_sizes":[],"default_left":[1,1,1,1,0,0,0,0,0,0,0,0,0],"id":3,"left_children":[1,3,5,7,9,11,-1,-1,-1,-1,-1,-1,-1],"loss_changes":[3.764047E1,1.2509181E1,4.873184E0,1.2069566E1,1.4037628E0,2.585762E0,0E0,0E0,0E0,0E0,0E0,0E0,0E0],"parents":[2147483647,0,0,1,1,2,2,3,3,4,4,5,5],"right_children":[2,4,6,8,10,12,-1,-1,-1,-1,-1,-1,-1],"split_conditions":[1.4340515E-1,1.8288518E-1,1.813002E-1,2.7819446E-1,1.0732905E0,2.2995089E-1,7.783266E-2,3.9071E-4,1.4257056E-1,1.2202754E-2,1.381981E-1,2.6487783E-2,-8.4534995E-2],"split_indices":[20754,2740,21078,16584,876,20794,0,0,0,0,0,0,0],"split_type":[0,0,0,0,0,0,0,0,0,0,0,0,0],"sum_hessian":[2.498683E3,2.435994E3,6.2689423E1,2.4283835E3,7.61033E0,6.1451145E1,1.2382765E0,2.4233982E3,4.9853344E0,1.2388041E0,6.371526E0,1.7402632E0,5.971088E1],"tree_param":{"num_deleted":"0","num_feature":"21658","num_nodes":"13","size_leaf_vector":"1"}},{"base_weights":[6.032194E-3,2.245591E-2,-5.528549E-1,1.8224452E-2,1.3389136E-1,9.2359655E-2,-5.9756804E-1,2.2682024E-3,-1.2130628E-1,-4.9931314E-2,-1.16097204E-1],"categories":[],"categories_nodes":[],"categories_segments":[],"categories_sizes":[],"default_left":[1,1,0,1,0,0,0,0,0,0,0],"id":4,"left_children":[1,3,5,7,-1,-1,9,-1,-1,-1,-1],"loss_changes":[2.2865255E1,1.3453919E1,5.2465935E0,1.3270484E1,0E0,0E0,3.2748508E0,0E0,0E0,0E0,0E0],"parents":[2147483647,0,0,1,1,2,2,3,3,6,6],"right_children":[2,4,6,8,-1,-1,10,-1,-1,-1,-1],"split_conditions":[1.2290221E-1,1.7263222E-1,3.022236E-1,1.8678203E-1,1.3389136E-1,9.2359655E-2,3.457123E-1,2.2682024E-3,-1.2130628E-1,-4.9931314E-2,-1.16097204E-1],"split_indices":[20754,2740,334,11038,0,0,20754,0,0,0,0],"split_type":[0,0,0,0,0,0,0,0,0,0,0],"sum_hessian":[2.4886865E3,2.4185732E3,7.0113495E1,2.4118347E3,6.73846E0,1.4831455E0,6.863035E1,2.4041128E3,7.7219205E0,6.0045033E1,8.585314E0],"tree_param":{"num_deleted":"0","num_feature":"21658","num_nodes":"11","size_leaf_vector":"1"}},{"base_weights":[-2.1461744E-3,1.1131574E-2,-5.314173E-1,1.7354626E-2,-7.8557855E-1,-4.153644E-1,-1.2319117E-1,2.0641729E-3,-1.3160609E-1,2.2541104E-2,-8.694778E-2,-4.676501E-2,7.515562E-2],"categories":[],"categories_nodes":[],"categories_segments":[],"categories_sizes":[],"default_left":[1,1,0,1,0,1,0,0,0,0,0,0,0],"id":5,"left_children":[1,3,5,7,9,11,-1,-1,-1,-1,-1,-1,-1],"loss_changes":[1.7638042E1,1.2153638E1,4.481676E0,1.0680603E1,1.807519E0,3.6585093E0,0E0,0E0,0E0,0E0,0E0,0E0,0E0],"parents":[2147483647,0,0,1,1,2,2,3,3,4,4,5,5],"right_children":[2,4,6,8,10,12,-1,-1,-1,-1,-1,-1,-1],"split_conditions":[1.4340515E-1,2.1363585E-1,3.457123E-1,2.3737401E-1,2.0639555E-1,2.9756E-1,-1.2319117E-1,2.0641729E-3,-1.3160609E-1,2.2541104E-2,-8.694778E-2,-4.676501E-2,7.515562E-2],"split_indices":[20754,20794,20754,12837,18565,15506,0,0,0,0,0,0,0],"split_type":[0,0,0,0,0,0,0,0,0,0,0,0,0],"sum_hessian":[2.508008E3,2.4475847E3,6.042324E1,2.4295857E3,1.7999117E1,5.320206E1,7.2211795E0,2.424593E3,4.9925284E0,1.2499897E0,1.6749126E1,5.1494034E1,1.7080265E0],"tree_param":{"num_deleted":"0","num_feature":"21658","num_nodes":"13","size_leaf_vector":"1"}},{"base_weights":[1.3967395E-2,1.5876229E-1,9.270488E-3,2.3406899E-2,-4.8768166E-1,2.8933103E-3,-7.612508E-2,8.899041E-2,-5.2532483E-2],"categories":[],"categories_nodes":[],"categories_segments":[],"categories_sizes":[],"default_left":[0,0,1,1,0,0,0,0,0],"id":6,"left_children":[1,-1,3,5,7,-1,-1,-1,-1],"loss_changes":[1.8463654E1,0E0,1.7529099E1,1.0539696E1,4.0464706E0,0E0,0E0,0E0,0E0],"parents":[2147483647,0,0,2,2,3,3,4,4],"right_children":[2,-1,4,6,8,-1,-1,-1,-1],"split_conditions":[1.1378161E0,1.5876229E-1,1.2290221E-1,1.456393E-1,2.056722E-1,2.8933103E-3,-7.612508E-2,8.899041E-2,-5.2532483E-2],"split_indices":[16584,0,20754,4621,13497,0,0,0,0],"split_type":[0,0,0,0,0,0,0,0,0],"sum_hessian":[2.4990122E3,6.4337335E0,2.4925784E3,2.4245618E3,6.8016716E1,2.4085618E3,1.5999945E1,1.2069463E0,6.680977E1],"tree_param":{"num_deleted":"0","num_feature":"21658","num_nodes":"9","size_leaf_vector":"1"}},{"base_weights":[-4.7337655E-3,9.2924265E-3,-4.9217942E-1,1.2548602E-2,-1.0781178E0,1.0677694E-1,-5.56944E-1,-4.4024073E-2,2.0082793E-3,-3.3855753E-3,-1.2804559E-1,-5.5225868E-2,6.789275E-2,4.9124733E-2,-5.984145E-2],"categories":[],"categories_nodes":[],"categories_segments":[],"categories_sizes":[],"default_left":[1,1,0,0,0,0,0,0,0,0,0,0,0,0,0],"id":7,"left_children":[1,3,5,7,9,11,13,-1,-1,-1,-1,-1,-1,-1,-1],"loss_changes":[1.7195755E1,8.67108E0,2.7883205E0,8.328472E0,1.5014801E0,3.279673E0,3.060503E0,0E0,0E0,0E0,0E0,0E0,0E0,0E0,0E0],"parents":[2147483647,0,0,1,1,2,2,3,3,4,4,5,5,6,6],"right_children":[2,4,6,8,10,12,14,-1,-1,-1,-1,-1,-1,-1,-1],"split_conditions":[1.2290221E-1,2.2960308E-1,1.797798E-1,5.390304E-1,1.494822E-1,1.2593013E-1,2.2995089E-1,-4.4024073E-2,2.0082793E-3,-3.3855753E-3,-1.2804559E-1,-5.5225868E-2,6.789275E-2,4.9124733E-2,-5.984145E-2],"split_indices":[20754,3034,12985,20794,12985,12985,20794,0,0,0,0,0,0,0,0],"split_type":[0,0,0,0,0,0,0,0,0,0,0,0,0,0,0],"sum_hessian":[2.5134312E3,2.4440837E3,6.934729E1,2.4377725E3,6.311284E0,6.703471E0,6.264382E1,3.8959415E1,2.3988132E3,1.2138668E0,5.097417E0,3.1313596E0,3.5721118E0,1.9713393E0,6.067248E1],"tree_param":{"num_deleted":"0","num_feature":"21658","num_nodes":"15","size_leaf_vector":"1"}},{"base_weights":[2.4154475E-2,3.5144657E-2,-4.297269E-1,4.0099755E-2,-8.727321E-1,-3.1105807E-1,-1.1162839E-1,4.3779127E-3,-8.741849E-2,2.656406E-2,-1.0134651E-1,-3.7332576E-2,1.10740796E-1],"categories":[],"categories_nodes":[],"categories_segments":[],"categories_sizes":[],"default_left":[1,1,0,1,0,0,0,0,0,0,0,0,0],"id":8,"left_children":[1,3,5,7,9,11,-1,-1,-1,-1,-1,-1,-1],"loss_changes":[1.2422349E1,1.0964039E1,4.44979E0,8.169686E0,2.3889885E0,4.9698987E0,0E0,0E0,0E0,0E0,0E0,0E0,0E0],"parents":[2147483647,0,0,1,1,2,2,3,3,4,4,5,5],"right_children":[2,4,6,8,10,12,-1,-1,-1,-1,-1,-1,-1],"split_conditions":[1.4340515E-1,1.8444309E-1,3.457123E-1,2.1080962E-1,2.3485088E-1,3.2409856E-1,-1.1162839E-1,4.3779127E-3,-8.741849E-2,2.656406E-2,-1.0134651E-1,-3.7332576E-2,1.10740796E-1],"split_indices":[20754,4621,20754,20147,6210,20754,0,0,0,0,0,0,0],"split_type":[0,0,0,0,0,0,0,0,0,0,0,0,0],"sum_hessian":[2.4863005E3,2.4284216E3,5.7878677E1,2.4161902E3,1.2231487E1,5.058783E1,7.290849E0,2.407454E3,8.73625E0,1.2481109E0,1.0983376E1,4.916634E1,1.4214897E0],"tree_param":{"num_deleted":"0","num_feature":"21658","num_nodes":"13","size_leaf_vector":"1"}},{"base_weights":[-1.1339783E-3,7.972372E-3,-4.0475088E-1,-3.1436528E-3,3.5202697E-1,6.635553E-2,-4.4171062E-1,1.0845133E-1,-6.499701E-4,3.8585365E-2,-8.230813E-2,6.635553E-2,-4.804192E-2],"categories":[],"categories_nodes":[],"categories_segments":[],"categories_sizes":[],"default_left":[1,1,0,0,1,0,0,0,0,0,0,0,0],"id":9,"left_children":[1,3,5,7,9,-1,11,-1,-1,-1,-1,-1,-1],"loss_changes":[9.217648E0,9.381375E0,2.4779205E0,8.683257E0,3.3692617E0,0E0,2.6326723E0,0E0,0E0,0E0,0E0,0E0,0E0],"parents":[2147483647,0,0,1,1,2,2,3,3,4,4,6,6],"right_children":[2,4,6,8,10,-1,12,-1,-1,-1,-1,-1,-1],"split_conditions":[1.8616383E-1,1.3249354E-1,1.5187939E-1,1.1378161E0,2.5892687E-1,6.635553E-2,2.48383E-1,1.0845133E-1,-6.499701E-4,3.8585365E-2,-8.230813E-2,6.635553E-2,-4.804192E-2],"split_indices":[12985,12985,3010,16584,13416,0,6829,0,0,0,0,0,0],"split_type":[0,0,0,0,0,0,0,0,0,0,0,0,0],"sum_hessian":[2.5059998E3,2.4516658E3,5.4333904E1,2.3758943E3,7.577166E1,1.2499902E0,5.3083916E1,6.317484E0,2.3695767E3,7.4304375E1,1.4672817E0,1.2499902E0,5.1833923E1],"tree_param":{"num_deleted":"0","num_feature":"21658","num_nodes":"13","size_leaf_vector":"1"}},{"base_weights":[-1.4953083E-2,1.27062E-1,-1.882253E-2,1.0622268E0,-2.2500595E-2,1.1772994E-1,2.1946978E-2,-1.2683173E-3,-4.170768E-2],"categories":[],"categories_nodes":[],"categories_segments":[],"categories_sizes":[],"default_left":[0,0,0,1,1,0,0,0,0],"id":10,"left_children":[1,-1,3,5,7,-1,-1,-1,-1],"loss_changes":[1.2492062E1,0E0,9.963913E0,5.6567574E-1,9.649572E0,0E0,0E0,0E0,0E0],"parents":[2147483647,0,0,2,2,3,3,4,4],"right_children":[2,-1,4,6,8,-1,-1,-1,-1],"split_conditions":[4.1190535E-1,1.27062E-1,3.2666725E-1,2.9044783E-1,1.4340515E-1,1.1772994E-1,2.1946978E-2,-1.2683173E-3,-4.170768E-2],"split_indices":[2740,0,14533,6493,20754,0,0,0,0],"split_type":[0,0,0,0,0,0,0,0,0],"sum_hessian":[2.5054336E3,6.536076E0,2.4988975E3,7.4973273E0,2.4914001E3,6.247335E0,1.2499924E0,2.4319238E3,5.9476368E1],"tree_param":{"num_deleted":"0","num_feature":"21658","num_nodes":"9","size_leaf_vector":"1"}},{"base_weights":[2.0415377E-2,2.4973322E-2,-9.3061584E-1,3.121078E-2,-6.020068E-1,-9.965523E-2,-3.353664E-2,1.196906E-1,2.8231612E-3,-1.1118098E-1,-4.9419776E-2],"categories":[],"categories_nodes":[],"categories_segments":[],"categories_sizes":[],"default_left":[1,1,1,0,0,0,0,0,0,0,0],"id":11,"left_children":[1,3,5,7,9,-1,-1,-1,-1,-1,-1],"loss_changes":[1.0841416E1,9.736088E0,1.3402748E-1,8.513584E0,7.984848E-1,0E0,0E0,0E0,0E0,0E0,0E0],"parents":[2147483647,0,0,1,1,2,2,3,3,4,4],"right_children":[2,4,6,8,10,-1,-1,-1,-1,-1,-1],"split_conditions":[1.82856E-1,2.1092215E-1,1.1836822E-1,2.0477763E-1,2.1755104E-1,-9.965523E-2,-3.353664E-2,1.196906E-1,2.8231612E-3,-1.1118098E-1,-4.9419776E-2],"split_indices":[3034,16582,12985,18838,16582,0,0,0,0,0,0],"split_type":[0,0,0,0,0,0,0,0,0,0,0],"sum_hessian":[2.4946882E3,2.483758E3,1.0930001E1,2.460233E3,2.3525196E1,9.2330675E0,1.6969337E0,5.2499824E0,2.454983E3,2.480891E0,2.1044306E1],"tree_param":{"num_deleted":"0","num_feature":"21658","num_nodes":"11","size_leaf_vector":"1"}},{"base_weights":[-1.0742594E-2,-7.3748706E-3,-1.2674205E0,-9.964091E-1,-3.3881709E-3,-1.4900184E-1,-1.664603E-2,-4.363076E-2,-1.2306565E-1,1.21461324E-1,-6.3367124E-4],"categories":[],"categories_nodes":[],"categories_segments":[],"categories_sizes":[],"default_left":[1,0,0,0,0,0,0,0,0,0,0],"id":12,"left_children":[1,3,5,7,9,-1,-1,-1,-1,-1,-1],"loss_changes":[1.0553474E1,9.815405E0,1.3853264E0,7.74292E-1,8.918489E0,0E0,0E0,0E0,0E0,0E0,0E0],"parents":[2147483647,0,0,1,1,2,2,3,3,4,4],"right_children":[2,4,6,8,10,-1,-1,-1,-1,-1,-1],"split_conditions":[2.8906667E-1,3.5117933E-1,4.784996E-1,2.360039E-1,4.0545037E-1,-1.4900184E-1,-1.664603E-2,-4.363076E-2,-1.2306565E-1,1.21461324E-1,-6.3367124E-4],"split_indices":[20794,16009,20794,16009,16584,0,0,0,0,0,0],"split_type":[0,0,0,0,0,0,0,0,0,0,0],"sum_hessian":[2.4948562E3,2.4891914E3,5.6648192E0,8.994005E0,2.4801975E3,4.418154E0,1.2466657E0,3.4964204E0,5.4975853E0,4.9971743E0,2.4752002E3],"tree_param":{"num_deleted":"0","num_feature":"21658","num_nodes":"11","size_leaf_vector":"1"}},{"base_weights":[9.147714E-3,1.9021181E-2,-4.4987652E-1,-1.5069163E-1,2.1501465E-2,9.0746716E-2,-4.9887094E-1,2.6690583E-3,-6.730059E-2,-5.5559315E-2,6.453606E-2],"categories":[],"categories_nodes":[],"categories_segments":[],"categories_sizes":[],"default_left":[1,0,0,0,1,0,1,0,0,0,0],"id":13,"left_children":[1,3,5,-1,7,-1,9,-1,-1,-1,-1],"loss_changes":[1.1375205E1,9.32832E0,3.9674091E0,0E0,8.858809E0,0E0,3.711133E0,0E0,0E0,0E0,0E0],"parents":[2147483647,0,0,1,1,2,2,4,4,6,6],"right_children":[2,4,6,-1,8,-1,10,-1,-1,-1,-1],"split_conditions":[1.5987363E-1,1.3321241E0,3.362822E-1,-1.5069163E-1,1.8554726E-1,9.0746716E-2,2.9756E-1,2.6690583E-3,-6.730059E-2,-5.5559315E-2,6.453606E-2],"split_indices":[20754,3627,16238,0,20418,0,15506,0,0,0,0],"split_type":[0,0,0,0,0,0,0,0,0,0,0],"sum_hessian":[2.5069976E3,2.4551467E3,5.185087E1,2.999849E0,2.4521467E3,1.1959642E0,5.0654907E1,2.4349155E3,1.7231274E1,4.8752567E1,1.9023377E0],"tree_param":{"num_deleted":"0","num_feature":"21658","num_nodes":"11","size_leaf_vector":"1"}},{"base_weights":[-7.3299333E-3,-1.1299106E-2,1.1372217E0,-4.965431E-1,-3.6340733E-3,1.2073449E-1,3.597231E-2,-5.594474E-2,5.329438E-2,1.4981451E-5,-9.573836E-2],"categories":[],"categories_nodes":[],"categories_segments":[],"categories_sizes":[],"default_left":[1,0,1,1,1,0,0,0,0,0,0],"id":14,"left_children":[1,3,5,7,9,-1,-1,-1,-1,-1,-1],"loss_changes":[1.14015665E1,9.293897E0,3.857231E-2,2.81452E0,8.882982E0,0E0,0E0,0E0,0E0,0E0,0E0],"parents":[2147483647,0,0,1,1,2,2,3,3,4,4],"right_children":[2,4,6,8,10,-1,-1,-1,-1,-1,-1],"split_conditions":[1.7263222E-1,3.3399057E-1,1.211245E-1,1.1773106E-1,2.718953E-1,1.2073449E-1,3.597231E-2,-5.594474E-2,5.329438E-2,1.4981451E-5,-9.573836E-2],"split_indices":[2740,21119,12985,13827,13416,0,0,0,0,0,0],"split_type":[0,0,0,0,0,0,0,0,0,0,0],"sum_hessian":[2.5059136E3,2.4982402E3,7.6734796E0,3.785732E1,2.4603828E3,6.5315375E0,1.141942E0,3.6107628E1,1.749692E0,2.451656E3,8.72681E0],"tree_param":{"num_deleted":"0","num_feature":"21658","num_nodes":"11","size_leaf_vector":"1"}},{"base_weights":[-8.771488E-3,-1.2111758E-2,1.1328878E-1,-9.470163E-1,-8.4609E-3,-4.0628344E-2,-1.1031568E-1,-7.215869E-5,-4.5236103E-2],"categories":[],"categories_nodes":[],"categories_segments":[],"categories_sizes":[],"default_left":[1,0,0,0,1,0,0,0,0],"id":15,"left_children":[1,3,-1,5,7,-1,-1,-1,-1],"loss_changes":[9.527846E0,8.486082E0,0E0,3.683567E-1,8.519418E0,0E0,0E0,0E0,0E0],"parents":[2147483647,0,0,1,1,3,3,4,4],"right_children":[2,4,-1,6,8,-1,-1,-1,-1],"split_conditions":[1.7263222E-1,3.3797795E-1,1.1328878E-1,1.8678203E-1,1.7052388E-1,-4.0628344E-2,-1.1031568E-1,-7.215869E-5,-4.5236103E-2],"split_indices":[2740,11038,0,11038,20754,0,0,0,0],"split_type":[0,0,0,0,0,0,0,0,0],"sum_hessian":[2.4938875E3,2.4875986E3,6.288829E0,8.6713085E0,2.4789272E3,2.7499497E0,5.921359E0,2.4374326E3,4.149454E1],"tree_param":{"num_deleted":"0","num_feature":"21658","num_nodes":"9","size_leaf_vector":"1"}},{"base_weights":[-1.1214971E-2,-3.4950096E-3,-4.6173054E-1,8.4863586E-4,-8.02653E-1,-5.448877E-1,6.33037E-2,1.4255142E-1,-1.8855899E-4,-4.325503E-3,-9.1140084E-2,-9.7384155E-2,-3.0413687E-2],"categories":[],"categories_nodes":[],"categories_segments":[],"categories_sizes":[],"default_left":[1,1,1,0,0,0,0,0,0,0,0,0,0],"id":16,"left_children":[1,3,5,7,9,11,-1,-1,-1,-1,-1,-1,-1],"loss_changes":[8.756187E0,8.59784E0,4.206294E0,9.601935E0,1.0663338E0,3.8303175E0,0E0,0E0,0E0,0E0,0E0,0E0,0E0],"parents":[2147483647,0,0,1,1,2,2,3,3,4,4,5,5],"right_children":[2,4,6,8,10,12,-1,-1,-1,-1,-1,-1,-1],"split_conditions":[1.6897428E-1,1.9137074E-1,1.5792283E-1,2.6589447E-1,2.1869381E-1,1.9785936E-1,6.33037E-2,1.4255142E-1,-1.8855899E-4,-4.325503E-3,-9.1140084E-2,-9.7384155E-2,-3.0413687E-2],"split_indices":[9975,4621,19036,9125,18710,9975,0,0,0,0,0,0,0],"split_type":[0,0,0,0,0,0,0,0,0,0,0,0,0],"sum_hessian":[2.5170835E3,2.4756687E3,4.1414898E1,2.463279E3,1.23896675E1,3.8957977E1,2.4569206E0,3.721719E0,2.4595574E3,1.7270741E0,1.0662593E1,1.2910282E1,2.6047697E1],"tree_param":{"num_deleted":"0","num_feature":"21658","num_nodes":"13","size_leaf_vector":"1"}},{"base_weights":[1.9591057E-3,7.631165E-1,-2.608847E-3,1.6285205E-1,1.04842246E-1,1.5874068E-3,-7.9373336E-1,-4.0892944E-2,4.4433173E-2,1.029709E-1,-1.4026555E-4,-7.234994E-3,-8.618907E-2],"categories":[],"categories_nodes":[],"categories_segments":[],"categories_sizes":[],"default_left":[0,0,1,0,0,0,0,0,0,0,0,0,0],"id":17,"left_children":[1,3,5,7,-1,9,11,-1,-1,-1,-1,-1,-1],"loss_changes":[8.711504E0,2.3890219E0,8.270768E0,1.1472576E0,0E0,7.6217985E0,5.839462E-1,0E0,0E0,0E0,0E0,0E0,0E0],"parents":[2147483647,0,0,1,1,2,2,3,3,5,5,6,6],"right_children":[2,4,6,8,-1,10,12,-1,-1,-1,-1,-1,-1],"split_conditions":[2.9878542E-1,1.9346936E-1,1.7457217E-1,1.6759667E-1,1.04842246E-1,3.651916E-1,1.5800764E-1,-4.0892944E-2,4.4433173E-2,1.029709E-1,-1.4026555E-4,-7.234994E-3,-8.618907E-2],"split_indices":[5813,5813,3034,12985,0,7973,20021,0,0,0,0,0,0],"split_type":[0,0,0,0,0,0,0,0,0,0,0,0,0],"sum_hessian":[2.5039429E3,1.3946704E1,2.489996E3,4.9993043E0,8.947399E0,2.4778513E3,1.2144936E1,1.4998373E0,3.499467E0,6.1896405E0,2.4716616E3,1.2263759E0,1.091856E1],"tree_param":{"num_deleted":"0","num_feature":"21658","num_nodes":"13","size_leaf_vector":"1"}},{"base_weights":[-6.5869526E-3,-3.142522E-3,-9.7584367E-1,5.472053E-3,-3.9162174E-1,-1.1848283E-1,-5.386227E-1,1.10384345E-1,2.4413879E-4,8.026246E-2,-4.379243E-2,1.831151E-2,-9.239947E-2],"categories":[],"categories_nodes":[],"categories_segments":[],"categories_sizes":[],"default_left":[1,1,0,0,0,0,0,0,0,0,0,0,0],"id":18,"left_children":[1,3,5,7,9,-1,11,-1,-1,-1,-1,-1,-1],"loss_changes":[8.310017E0,8.30911E0,1.6720295E-1,8.084148E0,3.3299484E0,0E0,1.4720114E0,0E0,0E0,0E0,0E0,0E0,0E0],"parents":[2147483647,0,0,1,1,2,2,3,3,4,4,6,6],"right_children":[2,4,6,8,10,-1,12,-1,-1,-1,-1,-1,-1],"split_conditions":[1.8816148E-1,1.5377647E-1,2.7300486E-1,3.5623023E-1,2.2990645E-1,-1.1848283E-1,3.6030313E-1,1.10384345E-1,2.4413879E-4,8.026246E-2,-4.379243E-2,1.831151E-2,-9.239947E-2],"split_indices":[11038,20754,11038,16579,13827,0,11038,0,0,0,0,0,0],"split_type":[0,0,0,0,0,0,0,0,0,0,0,0,0],"sum_hessian":[2.4890374E3,2.4812231E3,7.8142376E0,2.4283599E3,5.286327E1,4.1301737E0,3.6840637E0,5.6825137E0,2.4226775E3,1.3634155E0,5.1499855E1,1.4650687E0,2.218995E0],"tree_param":{"num_deleted":"0","num_feature":"21658","num_nodes":"13","size_leaf_vector":"1"}},{"base_weights":[-8.557596E-3,1.000944E-1,-1.2207341E-2,5.8647525E-1,-1.7822815E-2,6.5853514E-2,-1.8716846E-2,-2.0499758E-3,1.1304487E-1],"categories":[],"categories_nodes":[],"categories_segments":[],"categories_sizes":[],"default_left":[0,0,0,1,1,0,0,0,0],"id":19,"left_children":[1,-1,3,5,7,-1,-1,-1,-1],"loss_changes":[9.20294E0,0E0,8.369722E0,1.4130163E0,7.5982256E0,0E0,0E0,0E0,0E0],"parents":[2147483647,0,0,2,2,3,3,4,4],"right_children":[2,-1,4,6,8,-1,-1,-1,-1],"split_conditions":[2.7198452E-1,1.000944E-1,1.7663918E-1,1.0870087E-1,1.7717268E-1,6.5853514E-2,-1.8716846E-2,-2.0499758E-3,1.1304487E-1],"split_indices":[10513,0,13382,19036,18249,0,0,0,0],"split_type":[0,0,0,0,0,0,0,0,0],"sum_hessian":[2.49348E3,7.9980865E0,2.4854817E3,2.2135267E1,2.4633464E3,2.0385298E1,1.7499691E0,2.458597E3,4.749533E0],"tree_param":{"num_deleted":"0","num_feature":"21658","num_nodes":"9","size_leaf_vector":"1"}},{"base_weights":[5.6376224E-3,-1.2811013E-1,8.469458E-3,-1.1192763E0,1.15204435E-2,-1.4554767E-1,2.0126594E-2,1.4164903E-3,-1.243815E-1],"categories":[],"categories_nodes":[],"categories_segments":[],"categories_sizes":[],"default_left":[0,0,0,0,1,0,0,0,0],"id":20,"left_children":[1,-1,3,5,7,-1,-1,-1,-1],"loss_changes":[9.125683E0,0E0,8.604213E0,3.2884474E0,8.287596E0,0E0,0E0,0E0,0E0],"parents":[2147483647,0,0,2,2,3,3,4,4],"right_children":[2,-1,4,6,8,-1,-1,-1,-1],"split_conditions":[5.611923E-1,-1.2811013E-1,4.5671758E-1,4.2365056E-1,2.0663932E-1,-1.4554767E-1,2.0126594E-2,1.4164903E-3,-1.243815E-1],"split_indices":[20159,0,16595,12921,7986,0,0,0,0],"split_type":[0,0,0,0,0,0,0,0,0],"sum_hessian":[2.5004412E3,4.499613E0,2.4959417E3,5.7471485E0,2.4901946E3,4.499442E0,1.2477062E0,2.4859463E3,4.2481184E0],"tree_param":{"num_deleted":"0","num_feature":"21658","num_nodes":"9","size_leaf_vector":"1"}},{"base_weights":[2.3260808E-2,1.0444053E0,1.9191675E-2,1.3270773E-1,6.5947706E-1,2.3742491E-2,-7.4980676E-1,-1.294563E-3,9.165969E-2,8.516439E-2,1.9964143E-3,2.179071E-2,-8.561806E-2],"categories":[],"categories_nodes":[],"categories_segments":[],"categories_sizes":[],"default_left":[0,0,1,0,0,0,0,0,0,0,0,0,0],"id":21,"left_children":[1,3,5,-1,7,9,11,-1,-1,-1,-1,-1,-1],"loss_changes":[1.0356573E1,2.0127869E-1,8.726077E0,0E0,1.0797799E0,7.724152E0,1.696682E0,0E0,0E0,0E0,0E0,0E0,0E0],"parents":[2147483647,0,0,1,1,2,2,4,4,5,5,6,6],"right_children":[2,4,6,-1,8,10,12,-1,-1,-1,-1,-1,-1],"split_conditions":[1.1864109E0,2.693185E-1,1.8193552E-1,1.3270773E-1,3.1251627E-1,1.4184818E0,2.3370802E-1,-1.294563E-3,9.165969E-2,8.516439E-2,1.9964143E-3,2.179071E-2,-8.561806E-2],"split_indices":[9125,9125,13743,0,9125,662,4226,0,0,0,0,0,0],"split_type":[0,0,0,0,0,0,0,0,0,0,0,0,0],"sum_hessian":[2.4962766E3,8.893119E0,2.4873833E3,3.7163913E0,5.1767273E0,2.4737134E3,1.3669937E1,1.6946113E0,3.482116E0,1.0218704E1,2.4634946E3,1.2499812E0,1.2419956E1],"tree_param":{"num_deleted":"0","num_feature":"21658","num_nodes":"13","size_leaf_vector":"1"}},{"base_weights":[5.7549165E-3,-8.314562E-1,1.0140094E-2,-9.772547E-1,1.04928315E-2,1.46409E-2,-7.845969E-1,-9.119325E-3,-1.0762339E-1,1.8283001E-3,-9.129783E-2,2.1679895E-2,-9.001228E-2],"categories":[],"categories_nodes":[],"categories_segments":[],"categories_sizes":[],"default_left":[0,1,1,0,0,1,0,0,0,0,0,0,0],"id":22,"left_children":[1,3,5,7,-1,9,11,-1,-1,-1,-1,-1,-1],"loss_changes":[9.142534E0,1.8740292E0,8.867986E0,8.9502907E-1,0E0,8.337976E0,1.8103161E0,0E0,0E0,0E0,0E0,0E0,0E0],"parents":[2147483647,0,0,1,1,2,2,3,3,5,5,6,6],"right_children":[2,4,6,8,-1,10,12,-1,-1,-1,-1,-1,-1],"split_conditions":[8.4203887E-1,1.1836822E-1,1.7475158E-1,1.5237576E-1,1.04928315E-2,1.853497E-1,5.160263E-1,-9.119325E-3,-1.0762339E-1,1.8283001E-3,-9.129783E-2,2.1679895E-2,-9.001228E-2],"split_indices":[3034,12985,14247,7333,0,15765,18565,0,0,0,0,0,0],"split_type":[0,0,0,0,0,0,0,0,0,0,0,0,0],"sum_hessian":[2.4869624E3,1.1975695E1,2.4749866E3,1.0324488E1,1.6512072E0,2.4620251E3,1.2961524E1,1.2304888E0,9.093999E0,2.4533728E3,8.652355E0,1.2499702E0,1.1711554E1],"tree_param":{"num_deleted":"0","num_feature":"21658","num_nodes":"13","size_leaf_vector":"1"}},{"base_weights":[4.2976746E-3,6.8403496E-3,-1.2896663E-1,1.0686916E-2,-7.5069666E-1,1.328363E-3,-1.10551596E-1,-8.364206E-2,4.128167E-3],"categories":[],"categories_nodes":[],"categories_segments":[],"categories_sizes":[],"default_left":[1,1,0,1,1,0,0,0,0],"id":23,"left_children":[1,3,-1,5,7,-1,-1,-1,-1],"loss_changes":[8.151645E0,7.208503E0,0E0,7.143638E0,8.83039E-1,0E0,0E0,0E0,0E0],"parents":[2147483647,0,0,1,1,3,3,4,4],"right_children":[2,4,-1,6,8,-1,-1,-1,-1],"split_conditions":[2.807665E-1,1.6838382E-1,-1.2896663E-1,2.3371312E-1,1.4821678E-1,1.328363E-3,-1.10551596E-1,-8.364206E-2,4.128167E-3],"split_indices":[14476,3034,0,5507,14937,0,0,0,0],"split_type":[0,0,0,0,0,0,0,0,0],"sum_hessian":[2.4739246E3,2.4700654E3,3.8590333E0,2.4585674E3,1.1498045E1,2.453847E3,4.720483E0,1.0324413E1,1.173632E0],"tree_param":{"num_deleted":"0","num_feature":"21658","num_nodes":"9","size_leaf_vector":"1"}},{"base_weights":[1.1334328E-2,1.349718E-2,-1.4410968E-1,4.7315204E-1,6.4001745E-3,-1.1058497E-1,5.960642E-2,3.9878386E-4,1.3211924E-1],"categories":[],"categories_nodes":[],"categories_segments":[],"categories_sizes":[],"default_left":[1,0,0,0,1,0,0,0,0],"id":24,"left_children":[1,3,-1,5,7,-1,-1,-1,-1],"loss_changes":[7.8675036E0,8.137877E0,0E0,8.020807E0,7.7927713E0,0E0,0E0,0E0,0E0],"parents":[2147483647,0,0,1,1,3,3,4,4],"right_children":[2,4,-1,6,8,-1,-1,-1,-1],"split_conditions":[2.3175912E-1,3.038424E-1,-1.4410968E-1,2.3774356E-1,2.0500109E-1,-1.1058497E-1,5.960642E-2,3.9878386E-4,1.3211924E-1],"split_indices":[17966,13601,0,20754,9524,0,0,0,0],"split_type":[0,0,0,0,0,0,0,0,0],"sum_hessian":[2.4972705E3,2.4945466E3,2.7239866E0,3.693131E1,2.4576152E3,2.0896297E0,3.4841682E1,2.4541157E3,3.4996943E0],"tree_param":{"num_deleted":"0","num_feature":"21658","num_nodes":"9","size_leaf_vector":"1"}},{"base_weights":[-1.0313378E-2,-6.919092E-3,-1.0006957E0,-4.007387E-3,-1.1687633E-1,-1.9508965E-2,-1.0824597E-1,-1.330402E-1,-1.598207E-4],"categories":[],"categories_nodes":[],"categories_segments":[],"categories_sizes":[],"default_left":[1,1,0,0,0,0,0,0,0],"id":25,"left_children":[1,3,5,7,-1,-1,-1,-1,-1],"loss_changes":[8.374362E0,8.404325E0,3.492899E-1,7.9243503E0,0E0,0E0,0E0,0E0,0E0],"parents":[2147483647,0,0,1,1,2,2,3,3],"right_children":[2,4,6,8,-1,-1,-1,-1,-1],"split_conditions":[3.457123E-1,2.1411432E-1,5.415958E-1,1.077673E0,-1.1687633E-1,-1.9508965E-2,-1.0824597E-1,-1.330402E-1,-1.598207E-4],"split_indices":[20754,12468,16582,4149,0,0,0,0,0],"split_type":[0,0,0,0,0,0,0,0,0],"sum_hessian":[2.4922131E3,2.4847046E3,7.5087123E0,2.4794941E3,5.2104273E0,1.0038612E0,6.5048513E0,3.4960423E0,2.475998E3],"tree_param":{"num_deleted":"0","num_feature":"21658","num_nodes":"9","size_leaf_vector":"1"}},{"base_weights":[-4.727355E-3,-8.628231E-1,-3.5322824E-4,-3.534794E-1,-1.00111164E-1,-3.3445295E-3,1.0839055E0,-6.7188814E-2,2.284741E-2,-1.1859719E-1,-7.2143106E-5,1.18854955E-1,2.680693E-2],"categories":[],"categories_nodes":[],"categories_segments":[],"categories_sizes":[],"default_left":[0,0,1,0,0,0,1,0,0,0,0,0,0],"id":26,"left_children":[1,3,5,7,-1,9,11,-1,-1,-1,-1,-1,-1],"loss_changes":[9.367801E0,5.3769684E-1,8.06083E0,9.4077283E-1,0E0,7.6874757E0,2.651472E-1,0E0,0E0,0E0,0E0,0E0,0E0],"parents":[2147483647,0,0,1,1,2,2,3,3,5,5,6,6],"right_children":[2,4,6,8,-1,10,12,-1,-1,-1,-1,-1,-1],"split_conditions":[2.4791631E-1,1.799255E-1,1.7263222E-1,1.696043E-1,-1.00111164E-1,4.4390878E-1,1.15478E-1,-6.7188814E-2,2.284741E-2,-1.1859719E-1,-7.2143106E-5,1.18854955E-1,2.680693E-2],"split_indices":[908,908,2740,908,0,20159,12985,0,0,0,0,0,0],"split_type":[0,0,0,0,0,0,0,0,0,0,0,0,0],"sum_hessian":[2.494885E3,1.1657792E1,2.4832273E3,3.2486115E0,8.409181E0,2.4773894E3,5.8378177E0,1.9998685E0,1.248743E0,4.4843583E0,2.472905E3,4.769238E0,1.0685796E0],"tree_param":{"num_deleted":"0","num_feature":"21658","num_nodes":"13","size_leaf_vector":"1"}},{"base_weights":[-2.1411632E-3,9.684743E-1,-5.346684E-3,2.4925973E-2,1.0589303E-1,-1.2601346E-1,-2.4384912E-3,6.4287655E-2,-7.2801055E-4],"categories":[],"categories_nodes":[],"categories_segments":[],"categories_sizes":[],"default_left":[0,0,0,0,0,0,0,0,0],"id":27,"left_children":[1,3,5,-1,-1,-1,7,-1,-1],"loss_changes":[7.7591405E0,2.7010393E-1,9.064965E0,0E0,0E0,0E0,7.75379E0,0E0,0E0],"parents":[2147483647,0,0,1,1,2,2,6,6],"right_children":[2,4,6,-1,-1,-1,8,-1,-1],"split_conditions":[3.7779304E-1,2.3762682E-1,2.2995122E-1,2.4925973E-2,1.0589303E-1,-1.2601346E-1,1.5577292E-1,6.4287655E-2,-7.2801055E-4],"split_indices":[662,8109,14247,0,0,0,8109,0,0],"split_type":[0,0,0,0,0,0,0,0,0],"sum_hessian":[2.4911714E3,7.208956E0,2.4839624E3,1.2249539E0,5.9840016E0,4.7440825E0,2.4792183E3,1.7480993E1,2.4617373E3],"tree_param":{"num_deleted":"0","num_feature":"21658","num_nodes":"9","size_leaf_vector":"1"}},{"base_weights":[-4.882393E-3,-1.936955E-3,-1.2878536E-1,2.9770492E-3,-7.312895E-1,-4.132966E-2,1.0071748E-3,-9.514498E-2,1.39534045E-2],"categories":[],"categories_nodes":[],"categories_segments":[],"categories_sizes":[],"default_left":[1,1,0,0,1,0,0,0,0],"id":28,"left_children":[1,3,-1,5,7,-1,-1,-1,-1],"loss_changes":[9.446048E0,8.946542E0,0E0,7.3281493E0,3.3355818E0,0E0,0E0,0E0,0E0],"parents":[2147483647,0,0,1,1,3,3,4,4],"right_children":[2,4,-1,6,8,-1,-1,-1,-1],"split_conditions":[1.7312711E-1,2.307805E-1,-1.2878536E-1,3.3399057E-1,1.5772228E-1,-4.132966E-2,1.0071748E-3,-9.514498E-2,1.39534045E-2],"split_indices":[14442,13224,0,21119,12985,0,0,0,0],"split_type":[0,0,0,0,0,0,0,0,0],"sum_hessian":[2.4993342E3,2.4946086E3,4.7255993E0,2.478903E3,1.5705662E1,4.058137E1,2.4383215E3,1.246236E1,3.2433014E0],"tree_param":{"num_deleted":"0","num_feature":"21658","num_nodes":"9","size_leaf_vector":"1"}},{"base_weights":[-1.4193573E-2,-1.1612621E-2,-1.52508E-1,-7.386305E-1,-7.4784276E-3,-8.174176E-2,7.7742883E-3,8.599316E-5,-3.413645E-2],"categories":[],"categories_nodes":[],"categories_segments":[],"categories_sizes":[],"default_left":[1,0,0,1,1,0,0,0,0],"id":29,"left_children":[1,3,-1,5,7,-1,-1,-1,-1],"loss_changes":[9.708184E0,7.48114E0,0E0,9.687896E-1,6.8986526E0,0E0,0E0,0E0,0E0],"parents":[2147483647,0,0,1,1,3,3,4,4],"right_children":[2,4,-1,6,8,-1,-1,-1,-1],"split_conditions":[2.3001064E-1,8.4203887E-1,-1.52508E-1,1.4821678E-1,1.8134603E-1,-8.174176E-2,7.7742883E-3,8.599316E-5,-3.413645E-2],"split_indices":[9278,3034,0,14937,12985,0,0,0,0],"split_type":[0,0,0,0,0,0,0,0,0],"sum_hessian":[2.4931233E3,2.4898777E3,3.2456138E0,1.30740795E1,2.4768037E3,1.1922205E1,1.1518748E0,2.417429E3,5.937464E1],"tree_param":{"num_deleted":"0","num_feature":"21658","num_nodes":"9","size_leaf_vector":"1"}},{"base_weights":[5.851264E-4,-1.0218972E0,3.6528534E-3,-4.6050895E-2,-1.1751425E-1,-1.3715339E-1,5.72166E-3,1.4221044E-1,3.720863E-4],"categories":[],"categories_nodes":[],"categories_segments":[],"categories_sizes":[],"default_left":[0,0,0,0,0,0,0,0,0],"id":30,"left_children":[1,3,5,-1,-1,-1,7,-1,-1],"loss_changes":[7.819187E0,1.0034084E-1,7.078125E0,0E0,0E0,0E0,7.029641E0,0E0,0E0],"parents":[2147483647,0,0,1,1,2,2,6,6],"right_children":[2,4,6,-1,-1,-1,8,-1,-1],"split_conditions":[3.3537456E-1,1.9667956E-1,1.3321241E0,-4.6050895E-2,-1.1751425E-1,-1.3715339E-1,5.105573E-1,1.4221044E-1,3.720863E-4],"split_indices":[116,116,3627,0,0,0,6505,0,0],"split_type":[0,0,0,0,0,0,0,0,0],"sum_hessian":[2.4906196E3,6.4567423E0,2.4841628E3,2.2434154E0,4.213327E0,2.737174E0,2.4814258E3,2.4991305E0,2.4789268E3],"tree_param":{"num_deleted":"0","num_feature":"21658","num_nodes":"9","size_leaf_vector":"1"}},{"base_weights":[-6.7760153E-3,-1.0611708E-2,8.2629687E-1,-8.390302E-3,-1.3047394E-1,1.3488045E-1,2.969586E-1,-1.1602421E-1,-6.094847E-4,-4.1390505E-2,5.6704372E-2],"categories":[],"categories_nodes":[],"categories_segments":[],"categories_sizes":[],"default_left":[1,1,0,0,0,0,0,0,0,0,0],"id":31,"left_children":[1,3,5,7,-1,-1,9,-1,-1,-1,-1],"loss_changes":[7.9791136E0,7.1296253E0,2.764824E0,6.551736E0,0E0,0E0,1.572403E0,0E0,0E0,0E0,0E0],"parents":[2147483647,0,0,1,1,2,2,3,3,6,6],"right_children":[2,4,6,8,-1,-1,10,-1,-1,-1,-1],"split_conditions":[1.6453293E-1,2.5343075E-1,2.038838E-1,1.5267998E-1,-1.3047394E-1,1.3488045E-1,2.4024561E-1,-1.1602421E-1,-6.094847E-4,-4.1390505E-2,5.6704372E-2],"split_indices":[18838,9930,18838,16916,0,0,18838,0,0,0,0],"split_type":[0,0,0,0,0,0,0,0,0,0,0],"sum_hessian":[2.4933093E3,2.482865E3,1.0444519E1,2.479615E3,3.2498446E0,4.477098E0,5.967421E0,3.9283545E0,2.4756868E3,1.4964001E0,4.471021E0],"tree_param":{"num_deleted":"0","num_feature":"21658","num_nodes":"11","size_leaf_vector":"1"}},{"base_weights":[2.4419413E-3,-8.4555453E-1,6.8396847E-3,-9.271303E-1,-3.031919E-3,4.241527E-1,-1.2970878E-3,-5.883928E-2,-1.1304605E-1,1.23933986E-1,3.3663798E-2,-5.086018E-4,7.9285465E-2],"categories":[],"categories_nodes":[],"categories_segments":[],"categories_sizes":[],"default_left":[0,1,0,0,0,0,1,0,0,0,0,0,0],"id":32,"left_children":[1,3,5,7,-1,9,11,-1,-1,-1,-1,-1,-1],"loss_changes":[9.337903E0,8.3102226E-1,8.457175E0,1.4135647E-1,0E0,2.9810247E0,7.3575287E0,0E0,0E0,0E0,0E0,0E0,0E0],"parents":[2147483647,0,0,1,1,2,2,3,3,5,5,6,6],"right_children":[2,4,6,8,-1,10,12,-1,-1,-1,-1,-1,-1],"split_conditions":[2.740741E-1,1.3620426E-1,2.8571135E-1,2.029274E-1,-3.031919E-3,1.1907535E-1,2.2363828E-1,-5.883928E-2,-1.1304605E-1,1.23933986E-1,3.3663798E-2,-5.086018E-4,7.9285465E-2],"split_indices":[20147,20754,13382,20147,0,13382,1957,0,0,0,0,0,0],"split_type":[0,0,0,0,0,0,0,0,0,0,0,0,0],"sum_hessian":[2.5013982E3,1.1918605E1,2.4894795E3,1.0709695E1,1.2089105E0,4.6633736E1,2.442846E3,5.47778E0,5.231915E0,3.2450514E0,4.3388683E1,2.432235E3,1.0610696E1],"tree_param":{"num_deleted":"0","num_feature":"21658","num_nodes":"13","size_leaf_vector":"1"}},{"base_weights":[-1.147148E-2,-8.992259E-3,-1.3215293E-1,-4.1923006E-3,-6.883546E-1,1.08728066E-1,-7.0627633E-4,-1.17292665E-1,-4.7042858E-2],"categories":[],"categories_nodes":[],"categories_segments":[],"categories_sizes":[],"default_left":[1,1,0,0,0,0,0,0,0],"id":33,"left_children":[1,3,-1,5,7,-1,-1,-1,-1],"loss_changes":[8.087339E0,8.116652E0,0E0,7.757223E0,1.2923269E0,0E0,0E0,0E0,0E0],"parents":[2147483647,0,0,1,1,3,3,4,4],"right_children":[2,4,-1,6,8,-1,-1,-1,-1],"split_conditions":[2.2806342E-1,1.477197E-1,-1.3215293E-1,3.1865373E-1,1.841107E-1,1.08728066E-1,-7.0627633E-4,-1.17292665E-1,-4.7042858E-2],"split_indices":[3000,12069,0,14771,12069,0,0,0,0],"split_type":[0,0,0,0,0,0,0,0,0],"sum_hessian":[2.4926628E3,2.4889595E3,3.7033706E0,2.4724963E3,1.6462976E1,5.4944353E0,2.467002E3,3.7476408E0,1.2715336E1],"tree_param":{"num_deleted":"0","num_feature":"21658","num_nodes":"9","size_leaf_vector":"1"}},{"base_weights":[2.920012E-3,5.9667784E-3,-1.0562323E0,8.8233274E-1,2.528833E-3,-1.0941474E-3,-1.2609802E-1,1.5916301E-2,9.698587E-2,-9.871979E-2,5.5169367E-4],"categories":[],"categories_nodes":[],"categories_segments":[],"categories_sizes":[],"default_left":[1,0,0,0,0,0,0,0,0,0,0],"id":34,"left_children":[1,3,5,7,9,-1,-1,-1,-1,-1,-1],"loss_changes":[8.057027E0,7.4958115E0,1.5189404E0,4.6098757E-1,7.3395934E0,0E0,0E0,0E0,0E0,0E0,0E0],"parents":[2147483647,0,0,1,1,2,2,3,3,4,4],"right_children":[2,4,6,8,10,-1,-1,-1,-1,-1,-1],"split_conditions":[1.8483968E-1,2.7198452E-1,3.306343E-1,1.8242043E-1,9.134452E-1,-1.0941474E-3,-1.2609802E-1,1.5916301E-2,9.698587E-2,-9.871979E-2,5.5169367E-4],"split_indices":[12468,10513,9531,6441,16595,0,0,0,0,0,0],"split_type":[0,0,0,0,0,0,0,0,0,0,0],"sum_hessian":[2.4938093E3,2.4876477E3,6.161622E0,8.721832E0,2.4789258E3,1.1817782E0,4.979844E0,1.2459371E0,7.4758954E0,6.4702134E0,2.4724556E3],"tree_param":{"num_deleted":"0","num_feature":"21658","num_nodes":"11","size_leaf_vector":"1"}},{"base_weights":[-6.0426258E-3,8.706217E-1,-9.693524E-3,9.5484756E-2,1.2245234E-2,-1.404915E-1,-7.6125255E-3,-7.586774E-2,-4.1574347E-4],"categories":[],"categories_nodes":[],"categories_segments":[],"categories_sizes":[],"default_left":[0,1,0,0,0,0,0,0,0],"id":35,"left_children":[1,3,5,-1,-1,-1,7,-1,-1],"loss_changes":[8.019651E0,5.3791237E-1,7.229454E0,0E0,0E0,0E0,6.4607887E0,0E0,0E0],"parents":[2147483647,0,0,1,1,2,2,6,6],"right_children":[2,4,6,-1,-1,-1,8,-1,-1],"split_conditions":[4.8435372E-1,1.15478E-1,2.5869408E-1,9.5484756E-2,1.2245234E-2,-1.404915E-1,8.4731114E-1,-7.586774E-2,-4.1574347E-4],"split_indices":[5542,12985,8175,0,0,0,12921,0,0],"split_type":[0,0,0,0,0,0,0,0,0],"sum_hessian":[2.5020247E3,9.391712E0,2.492633E3,8.193119E0,1.1985924E0,2.7083127E0,2.4899248E3,1.0400909E1,2.479524E3],"tree_param":{"num_deleted":"0","num_feature":"21658","num_nodes":"9","size_leaf_vector":"1"}},{"base_weights":[7.594884E-3,1.15032885E-2,-8.1335646E-1,1.5150344E-2,-8.6993776E-2,-4.625401E-1,-1.0952558E-1,1.932895E-3,-7.362347E-2,-7.3056765E-2,-3.523097E-3],"categories":[],"categories_nodes":[],"categories_segments":[],"categories_sizes":[],"default_left":[1,1,0,1,0,0,0,0,0,0,0],"id":36,"left_children":[1,3,5,7,-1,9,-1,-1,-1,-1,-1],"loss_changes":[7.959165E0,7.943417E0,6.557822E-1,7.730813E0,0E0,7.7228415E-1,0E0,0E0,0E0,0E0,0E0],"parents":[2147483647,0,0,1,1,2,2,3,3,5,5],"right_children":[2,4,6,8,-1,10,-1,-1,-1,-1,-1],"split_conditions":[2.4492764E-1,1.6532177E-1,2.8906667E-1,1.8193552E-1,-8.6993776E-2,2.646146E-1,-1.0952558E-1,1.932895E-3,-7.362347E-2,-7.3056765E-2,-3.523097E-3],"split_indices":[20794,11038,20794,13743,0,20794,0,0,0,0,0],"split_type":[0,0,0,0,0,0,0,0,0,0,0],"sum_hessian":[2.4766484E3,2.4658948E3,1.0753703E1,2.4567126E3,9.182096E0,5.9677696E0,4.7859335E0,2.4440947E3,1.2617832E1,3.231275E0,2.7364945E0],"tree_param":{"num_deleted":"0","num_feature":"21658","num_nodes":"11","size_leaf_vector":"1"}},{"base_weights":[1.4646031E-2,1.12316035E-1,1.0450041E-2,7.24998E-3,9.996169E-2,1.0011408E-3,-1.13295294E-1],"categories":[],"categories_nodes":[],"categories_segments":[],"categories_sizes":[],"default_left":[0,0,1,1,0,0,0],"id":37,"left_children":[1,-1,3,5,-1,-1,-1],"loss_changes":[1.1565013E1,0E0,7.8446503E0,7.7995396E0,0E0,0E0,0E0],"parents":[2147483647,0,0,2,2,3,3],"right_children":[2,-1,4,6,-1,-1,-1],"split_conditions":[1.1864109E0,1.12316035E-1,1.6910043E-1,2.830906E-1,9.996169E-2,1.0011408E-3,-1.13295294E-1],"split_indices":[9125,0,5265,12069,0,0,0],"split_type":[0,0,0,0,0,0,0],"sum_hessian":[2.4879197E3,8.376234E0,2.4795435E3,2.4725518E3,6.9916415E0,2.467567E3,4.9849176E0],"tree_param":{"num_deleted":"0","num_feature":"21658","num_nodes":"7","size_leaf_vector":"1"}},{"base_weights":[-1.5656607E-3,-5.1244074E-3,1.07675925E-1,-1.357404E-3,-8.412935E-1,1.4825448E-4,-1.0832306E-1,-9.082501E-2,-1.6247837E-2],"categories":[],"categories_nodes":[],"categories_segments":[],"categories_sizes":[],"default_left":[1,1,0,1,0,0,0,0,0],"id":38,"left_children":[1,3,-1,5,7,-1,-1,-1,-1],"loss_changes":[9.595386E0,7.847575E0,0E0,7.6262336E0,3.6028385E-1,0E0,0E0,0E0,0E0],"parents":[2147483647,0,0,1,1,3,3,4,4],"right_children":[2,4,-1,6,8,-1,-1,-1,-1],"split_conditions":[1.6910043E-1,1.5470318E-1,1.07675925E-1,1.8732943E-1,3.759392E-1,1.4825448E-4,-1.0832306E-1,-9.082501E-2,-1.6247837E-2],"split_indices":[5265,16009,0,14961,16009,0,0,0,0],"split_type":[0,0,0,0,0,0,0,0,0],"sum_hessian":[2.4979985E3,2.4907734E3,7.2249393E0,2.4805999E3,1.017366E1,2.4751013E3,5.4985833E0,8.952606E0,1.2210541E0],"tree_param":{"num_deleted":"0","num_feature":"21658","num_nodes":"9","size_leaf_vector":"1"}},{"base_weights":[-7.98813E-3,7.2095013E-4,-3.5364255E-1,-1.0438627E-2,3.7462965E-1,-4.1245425E-1,4.8473117E-1,-6.992798E-4,-9.468639E-2,-9.199755E-2,4.207343E-2,7.039688E-2,-4.4941615E-2,8.38571E-2,2.8986763E-3],"categories":[],"categories_nodes":[],"categories_segments":[],"categories_sizes":[],"default_left":[1,1,1,1,0,0,0,0,0,0,0,0,0,0,0],"id":39,"left_children":[1,3,5,7,9,11,13,-1,-1,-1,-1,-1,-1,-1,-1],"loss_changes":[7.532956E0,1.0192647E1,3.2322516E0,7.6472297E0,4.612441E0,2.7101107E0,6.999321E-1,0E0,0E0,0E0,0E0,0E0,0E0,0E0,0E0],"parents":[2147483647,0,0,1,1,2,2,3,3,4,4,5,5,6,6],"right_children":[2,4,6,8,10,12,14,-1,-1,-1,-1,-1,-1,-1,-1],"split_conditions":[1.8134603E-1,1.3249354E-1,1.7505163E-1,2.292052E-1,2.6828417E-1,6.589432E-1,2.8649575E-1,-6.992798E-4,-9.468639E-2,-9.199755E-2,4.207343E-2,7.039688E-2,-4.4941615E-2,8.38571E-2,2.8986763E-3],"split_indices":[12985,12985,13224,10798,9760,11714,13224,0,0,0,0,0,0,0,0],"split_type":[0,0,0,0,0,0,0,0,0,0,0,0,0,0,0],"sum_hessian":[2.5012827E3,2.4407827E3,6.0499844E1,2.370991E3,6.979187E1,5.7008728E1,3.4911153E0,2.363302E3,7.6889405E0,1.7482224E0,6.804365E1,1.2486236E0,5.5760105E1,1.4924078E0,1.9987075E0],"tree_param":{"num_deleted":"0","num_feature":"21658","num_nodes":"15","size_leaf_vector":"1"}},{"base_weights":[6.7269458E-3,1.24081215E-2,-5.811754E-1,1.0674908E-1,9.625794E-3,-6.6311854E-1,1.4379767E-2,1.2780064E-3,-9.111784E-2,-7.2996825E-2,2.407065E-2],"categories":[],"categories_nodes":[],"categories_segments":[],"categories_sizes":[],"default_left":[1,0,1,0,1,1,0,0,0,0,0],"id":40,"left_children":[1,3,5,-1,7,9,-1,-1,-1,-1,-1],"loss_changes":[8.343779E0,7.2496777E0,1.515769E0,0E0,7.178671E0,1.4844227E0,0E0,0E0,0E0,0E0,0E0],"parents":[2147483647,0,0,1,1,2,2,4,4,5,5],"right_children":[2,4,6,-1,8,10,-1,-1,-1,-1,-1],"split_conditions":[1.5612483E-1,5.161816E-1,2.469498E-1,1.0674908E-1,1.7762701E-1,1.5250163E-1,1.4379767E-2,1.2780064E-3,-9.111784E-2,-7.2996825E-2,2.407065E-2],"split_indices":[7015,19215,2136,0,16739,15386,0,0,0,0,0],"split_type":[0,0,0,0,0,0,0,0,0,0,0],"sum_hessian":[2.4949956E3,2.4720857E3,2.2910028E1,5.495448E0,2.46659E3,2.0660147E1,2.2498813E0,2.4591523E3,7.437849E0,1.9416407E1,1.2437407E0],"tree_param":{"num_deleted":"0","num_feature":"21658","num_nodes":"11","size_leaf_vector":"1"}},{"base_weights":[3.904703E-3,7.923282E-3,-7.776165E-1,-8.8340884E-1,1.1253872E-2,6.7563035E-2,-9.9546015E-1,-1.3911406E-2,-9.798828E-2,9.7715266E-2,8.388799E-4,-5.4474857E-2,-1.1443112E-1],"categories":[],"categories_nodes":[],"categories_segments":[],"categories_sizes":[],"default_left":[1,0,0,0,0,0,0,0,0,0,0,0,0],"id":41,"left_children":[1,3,5,7,9,-1,11,-1,-1,-1,-1,-1,-1],"loss_changes":[7.787525E0,7.330599E0,4.6884027E0,5.237713E-1,6.793409E0,0E0,1.4384937E-1,0E0,0E0,0E0,0E0,0E0,0E0],"parents":[2147483647,0,0,1,1,2,2,3,3,4,4,6,6],"right_children":[2,4,6,8,10,-1,12,-1,-1,-1,-1,-1,-1],"split_conditions":[1.82073E-1,2.2592075E-1,4.4745845E-1,1.5199885E-1,4.3721178E-1,6.7563035E-2,2.0574287E-1,-1.3911406E-2,-9.798828E-2,9.7715266E-2,8.388799E-4,-5.4474857E-2,-1.1443112E-1],"split_indices":[5507,8013,1412,16582,16584,0,5507,0,0,0,0,0,0],"split_type":[0,0,0,0,0,0,0,0,0,0,0,0,0],"sum_hessian":[2.476664E3,2.464979E3,1.1685051E1,8.1927595E0,2.4567864E3,1.24932E0,1.0435731E1,1.220283E0,6.9724765E0,6.2601275E0,2.4505261E3,3.747681E0,6.68805E0],"tree_param":{"num_deleted":"0","num_feature":"21658","num_nodes":"13","size_leaf_vector":"1"}},{"base_weights":[2.2107316E-3,5.3530443E-3,-1.00251995E-1,8.456869E-3,-9.352472E-1,5.439526E-4,9.62596E-2,-1.13964796E-1,-4.665744E-2],"categories":[],"categories_nodes":[],"categories_segments":[],"categories_sizes":[],"default_left":[1,1,0,1,0,0,0,0,0],"id":42,"left_children":[1,3,-1,5,7,-1,-1,-1,-1],"loss_changes":[7.8523197E0,7.2443075E0,0E0,7.1101756E0,2.5009727E-1,0E0,0E0,0E0,0E0],"parents":[2147483647,0,0,1,1,3,3,4,4],"right_children":[2,4,-1,6,8,-1,-1,-1,-1],"split_conditions":[2.71423E-1,1.8029772E-1,-1.00251995E-1,1.84019E-1,3.1611228E-1,5.439526E-4,9.62596E-2,-1.13964796E-1,-4.665744E-2],"split_indices":[20794,16739,0,2740,16739,0,0,0,0],"split_type":[0,0,0,0,0,0,0,0,0],"sum_hessian":[2.4844324E3,2.4776782E3,6.754309E0,2.4705168E3,7.161288E0,2.4637314E3,6.7855353E0,3.9896464E0,3.171641E0],"tree_param":{"num_deleted":"0","num_feature":"21658","num_nodes":"9","size_leaf_vector":"1"}},{"base_weights":[9.2869384E-5,1.2593244E-1,-2.5640104E-3,2.863209E-5,-1.1760503E-1,2.3389682E-4,-1.2818442E-1],"categories":[],"categories_nodes":[],"categories_segments":[],"categories_sizes":[],"default_left":[0,0,1,1,0,0,0],"id":43,"left_children":[1,-1,3,5,-1,-1,-1],"loss_changes":[8.334002E0,0E0,7.562918E0,7.3515806E0,0E0,0E0,0E0],"parents":[2147483647,0,0,2,2,3,3],"right_children":[2,-1,4,6,-1,-1,-1],"split_conditions":[2.445117E-1,1.2593244E-1,2.1107328E-1,2.5288248E-1,-1.1760503E-1,2.3389682E-4,-1.2818442E-1],"split_indices":[20635,0,12837,19864,0,0,0],"split_type":[0,0,0,0,0,0,0],"sum_hessian":[2.4890486E3,4.244777E0,2.4848037E3,2.4803237E3,4.479929E0,2.476858E3,3.4658983E0],"tree_param":{"num_deleted":"0","num_feature":"21658","num_nodes":"7","size_leaf_vector":"1"}},{"base_weights":[5.2585294E-3,7.761506E-3,-1.1879711E0,5.6586843E-3,1.4089182E-1,-1.4391418E-1,-2.1800434E-2,8.564334E-2,2.2468486E-4],"categories":[],"categories_nodes":[],"categories_segments":[],"categories_sizes":[],"default_left":[1,1,0,0,0,0,0,0,0],"id":44,"left_children":[1,3,5,7,-1,-1,-1,-1,-1],"loss_changes":[7.426859E0,7.297326E0,9.5442295E-1,7.1872053E0,0E0,0E0,0E0,0E0,0E0],"parents":[2147483647,0,0,1,1,2,2,3,3],"right_children":[2,4,6,8,-1,-1,-1,-1,-1],"split_conditions":[2.7891695E-1,3.072124E-1,5.625068E-1,7.092359E-1,1.4089182E-1,-1.4391418E-1,-2.1800434E-2,8.564334E-2,2.2468486E-4],"split_indices":[3377,18536,3377,662,0,0,0,0,0],"split_type":[0,0,0,0,0,0,0,0,0],"sum_hessian":[2.4826182E3,2.4784128E3,4.2053437E0,2.4757012E3,2.711434E0,2.9561532E0,1.2491907E0,8.889937E0,2.4668113E3],"tree_param":{"num_deleted":"0","num_feature":"21658","num_nodes":"9","size_leaf_vector":"1"}},{"base_weights":[-1.0490662E-2,-1.032027E0,-7.091502E-3,-6.659378E-1,-1.3882814E-1,-4.253749E-3,-1.15337744E-1,-9.76625E-2,2.8858716E-2,1.1733253E-1,-6.959907E-4],"categories":[],"categories_nodes":[],"categories_segments":[],"categories_sizes":[],"default_left":[0,0,1,0,0,0,0,0,0,0,0],"id":45,"left_children":[1,3,5,7,-1,9,-1,-1,-1,-1,-1],"loss_changes":[8.6139765E0,1.4850235E-1,8.047923E0,2.05513E0,0E0,7.8809233E0,0E0,0E0,0E0,0E0,0E0],"parents":[2147483647,0,0,1,1,2,2,3,3,5,5],"right_children":[2,4,6,8,-1,10,-1,-1,-1,-1,-1],"split_conditions":[3.140423E-1,2.6239112E-1,1.8483968E-1,2.246606E-1,-1.3882814E-1,6.050392E-1,-1.15337744E-1,-9.76625E-2,2.8858716E-2,1.1733253E-1,-6.959907E-4],"split_indices":[11434,11434,12468,11434,0,1104,0,0,0,0,0],"split_type":[0,0,0,0,0,0,0,0,0,0,0],"sum_hessian":[2.4818303E3,7.2272954E0,2.474603E3,4.9795523E0,2.247743E0,2.4694932E3,5.109783E0,3.739299E0,1.2402531E0,4.6702433E0,2.464823E3],"tree_param":{"num_deleted":"0","num_feature":"21658","num_nodes":"11","size_leaf_vector":"1"}},{"base_weights":[-7.261982E-3,-3.446784E-3,-8.9885867E-1,-1.4638558E-1,-1.2386205E-3,-1.4890482E-2,-9.82425E-1,-9.743544E-2,1.869441E-4,-1.0800564E-1,-1.9256843E-2],"categories":[],"categories_nodes":[],"categories_segments":[],"categories_sizes":[],"default_left":[1,0,0,0,0,0,1,0,0,0,0],"id":46,"left_children":[1,3,5,-1,7,-1,9,-1,-1,-1,-1],"loss_changes":[8.476956E0,8.00648E0,5.191622E-1,0E0,7.5043464E0,0E0,5.1496696E-1,0E0,0E0,0E0,0E0],"parents":[2147483647,0,0,1,1,2,2,4,4,6,6],"right_children":[2,4,6,-1,8,-1,10,-1,-1,-1,-1],"split_conditions":[2.6931474E-1,8.2043016E-1,2.919297E-1,-1.4638558E-1,1.0545034E0,-1.4890482E-2,3.6548027E-1,-9.743544E-2,1.869441E-4,-1.0800564E-1,-1.9256843E-2],"split_indices":[13416,3341,3010,0,21323,0,13396,0,0,0,0],"split_type":[0,0,0,0,0,0,0,0,0,0,0],"sum_hessian":[2.491947E3,2.4823289E3,9.6181755E0,2.7483203E0,2.4795806E3,1.2431931E0,8.374982E0,6.8994865E0,2.4726812E3,7.1266704E0,1.2483116E0],"tree_param":{"num_deleted":"0","num_feature":"21658","num_nodes":"11","size_leaf_vector":"1"}},{"base_weights":[-2.7285847E-3,5.231017E-1,-8.79515E-3,5.908317E-1,-4.177692E-2,-3.3761468E-3,-5.631619E-1,-3.1375468E-2,6.549295E-2,1.03933096E-1,-6.040611E-4,-8.191915E-2,-6.891638E-3],"categories":[],"categories_nodes":[],"categories_segments":[],"categories_sizes":[],"default_left":[0,1,1,0,0,0,0,0,0,0,0,0,0],"id":47,"left_children":[1,3,5,7,-1,9,11,-1,-1,-1,-1,-1,-1],"loss_changes":[7.9672465E0,2.0621285E0,7.4142194E0,1.7702837E0,0E0,6.8012304E0,2.9668422E0,0E0,0E0,0E0,0E0,0E0,0E0],"parents":[2147483647,0,0,1,1,2,2,3,3,5,5,6,6],"right_children":[2,4,6,8,-1,10,12,-1,-1,-1,-1,-1,-1],"split_conditions":[2.5264338E-1,1.4361021E-1,1.990297E-1,1.8340226E-1,-4.177692E-2,2.1627916E-1,2.7035344E-1,-3.1375468E-2,6.549295E-2,1.03933096E-1,-6.040611E-4,-8.191915E-2,-6.891638E-3],"split_indices":[9531,5026,9970,9975,0,21354,9970,0,0,0,0,0,0],"split_type":[0,0,0,0,0,0,0,0,0,0,0,0,0],"sum_hessian":[2.4951401E3,2.7486336E1,2.4676538E3,2.5987616E1,1.4987198E0,2.444762E3,2.2891758E1,1.4618716E0,2.4525743E1,5.2395864E0,2.4395225E3,1.4646899E1,8.24486E0],"tree_param":{"num_deleted":"0","num_feature":"21658","num_nodes":"13","size_leaf_vector":"1"}},{"base_weights":[-3.669445E-3,-8.589497E-4,-1.1187227E-1,6.064718E-3,-3.808946E-1,3.8031428E-4,1.1595284E-1,4.8580825E-2,-4.8240792E-2],"categories":[],"categories_nodes":[],"categories_segments":[],"categories_sizes":[],"default_left":[1,1,0,1,0,0,0,0,0],"id":48,"left_children":[1,3,-1,5,7,-1,-1,-1,-1],"loss_changes":[7.7600493E0,6.5048485E0,0E0,6.3295097E0,4.1260686E0,0E0,0E0,0E0,0E0],"parents":[2147483647,0,0,1,1,3,3,4,4],"right_children":[2,4,-1,6,8,-1,-1,-1,-1],"split_conditions":[1.75194E-1,1.6818671E-1,-1.1187227E-1,2.704909E-1,1.797798E-1,3.8031428E-4,1.1595284E-1,4.8580825E-2,-4.8240792E-2],"split_indices":[14961,20754,0,4117,12985,0,0,0,0],"split_type":[0,0,0,0,0,0,0,0,0],"sum_hessian":[2.4755083E3,2.4702827E3,5.2255855E0,2.4270496E3,4.323309E1,2.4233015E3,3.7480264E0,4.135894E0,3.9097195E1],"tree_param":{"num_deleted":"0","num_feature":"21658","num_nodes":"9","size_leaf_vector":"1"}},{"base_weights":[1.5671586E-3,1.165279E0,-1.3117924E-3,5.192849E-2,1.3445038E-1,9.775919E-1,-4.3049566E-3,4.1318055E-2,1.0961272E-1,-2.8191177E-2,6.219399E-4],"categories":[],"categories_nodes":[],"categories_segments":[],"categories_sizes":[],"default_left":[0,0,0,0,0,0,0,0,0,0,0],"id":49,"left_children":[1,3,5,-1,-1,7,9,-1,-1,-1,-1],"loss_changes":[8.349731E0,1.3910294E-2,7.2901416E0,0E0,0E0,5.4528713E-2,7.2475934E0,0E0,0E0,0E0,0E0],"parents":[2147483647,0,0,1,1,2,2,5,5,6,6],"right_children":[2,4,6,-1,-1,8,10,-1,-1,-1,-1],"split_conditions":[2.0313796E-1,1.3352498E-1,4.0007973E-1,5.192849E-2,1.3445038E-1,2.2115122E-1,4.1973326E-1,4.1318055E-2,1.0961272E-1,-2.8191177E-2,6.219399E-4],"split_indices":[18838,19036,9125,0,0,9125,16582,0,0,0,0],"split_type":[0,0,0,0,0,0,0,0,0,0,0],"sum_hessian":[2.4908003E3,5.1504707E0,2.48565E3,1.9650557E0,3.185415E0,6.5845613E0,2.4790654E3,1.9214075E0,4.663154E0,8.960911E1,2.3894563E3],"tree_param":{"num_deleted":"0","num_feature":"21658","num_nodes":"11","size_leaf_vector":"1"}},{"base_weights":[6.721208E-3,9.6876165E-3,-9.44404E-2,1.2551996E-1,7.450085E-3,-8.403169E-2,1.0707541E-3],"categories":[],"categories_nodes":[],"categories_segments":[],"categories_sizes":[],"default_left":[1,0,0,0,0,0,0],"id":50,"left_children":[1,3,-1,-1,5,-1,-1],"loss_changes":[7.0127645E0,6.889741E0,0E0,0E0,6.8359547E0,0E0,0E0],"parents":[2147483647,0,0,1,1,4,4],"right_children":[2,4,-1,-1,6,-1,-1],"split_conditions":[1.7312017E-1,8.9399123E-1,-9.44404E-2,1.2551996E-1,2.5618163E-1,-8.403169E-2,1.0707541E-3],"split_indices":[13788,8135,0,0,18566,0,0],"split_type":[0,0,0,0,0,0,0],"sum_hessian":[2.481296E3,2.474568E3,6.7279716E0,3.4333513E0,2.4711348E3,8.4751425E0,2.4626594E3],"tree_param":{"num_deleted":"0","num_feature":"21658","num_nodes":"7","size_leaf_vector":"1"}},{"base_weights":[-5.1758345E-3,4.6113357E-1,-1.2107078E-2,5.4039174E-1,-8.386551E-2,1.1849651E0,-1.47352405E-2,6.2633954E-2,-8.315068E-2,4.7175128E-2,1.3964961E-1,-1.7591132E-3,9.857966E-2],"categories":[],"categories_nodes":[],"categories_segments":[],"categories_sizes":[],"default_left":[0,1,0,1,0,0,1,0,0,0,0,0,0],"id":51,"left_children":[1,3,5,7,-1,9,11,-1,-1,-1,-1,-1,-1],"loss_changes":[8.0600395E0,4.215916E0,7.7458305E0,4.651657E0,0E0,1.5492773E-1,7.0239935E0,0E0,0E0,0E0,0E0,0E0,0E0],"parents":[2147483647,0,0,1,1,2,2,3,3,5,5,6,6],"right_children":[2,4,6,8,-1,10,12,-1,-1,-1,-1,-1,-1],"split_conditions":[3.0307746E-1,1.1936667E-1,3.0089054E-1,1.3654526E-1,-8.386551E-2,2.1126391E-1,1.5995228E-1,6.2633954E-2,-8.315068E-2,4.7175128E-2,1.3964961E-1,-1.7591132E-3,9.857966E-2],"split_indices":[13601,14937,7973,18565,0,7973,13123,0,0,0,0,0,0],"split_type":[0,0,0,0,0,0,0,0,0,0,0,0,0],"sum_hessian":[2.4910166E3,3.552451E1,2.4554922E3,3.403347E1,1.4910378E0,4.393676E0,2.4510984E3,3.253843E1,1.4950414E0,1.7439198E0,2.649756E0,2.4451016E3,5.996816E0],"tree_param":{"num_deleted":"0","num_feature":"21658","num_nodes":"13","size_leaf_vector":"1"}},{"base_weights":[-3.2882593E-3,-1.2345946E-1,-6.9811137E-4,-3.1158875E-3,1.2015247E-1,1.0108534E-1,-5.555241E-4],"categories":[],"categories_nodes":[],"categories_segments":[],"categories_sizes":[],"default_left":[0,0,1,0,0,0,0],"id":52,"left_children":[1,-1,3,5,-1,-1,-1],"loss_changes":[7.9510803E0,0E0,7.238861E0,6.1523705E0,0E0,0E0,0E0],"parents":[2147483647,0,0,2,2,3,3],"right_children":[2,-1,4,6,-1,-1,-1],"split_conditions":[3.0470604E-1,-1.2345946E-1,2.6001507E-1,1.8771112E-1,1.2015247E-1,1.0108534E-1,-5.555241E-4],"split_indices":[6949,0,8869,911,0,0,0],"split_type":[0,0,0,0,0,0,0],"sum_hessian":[2.492346E3,4.2333703E0,2.4881128E3,2.4841143E3,3.9983647E0,4.969673E0,2.4791445E3],"tree_param":{"num_deleted":"0","num_feature":"21658","num_nodes":"7","size_leaf_vector":"1"}},{"base_weights":[-4.785181E-3,-8.972138E-1,-1.2094036E-3,-9.9624686E-2,-2.5960494E-2,1.2840685E-3,-1.2583569E-1,3.7889337E-4,-1.21548705E-1],"categories":[],"categories_nodes":[],"categories_segments":[],"categories_sizes":[],"default_left":[0,1,1,0,0,1,0,0,0],"id":53,"left_children":[1,3,5,-1,-1,7,-1,-1,-1],"loss_changes":[7.976171E0,3.71233E-1,7.8095894E0,0E0,0E0,7.5843534E0,0E0,0E0,0E0],"parents":[2147483647,0,0,1,1,2,2,5,5],"right_children":[2,4,6,-1,-1,8,-1,-1,-1],"split_conditions":[2.8578258E-1,1.09280944E-1,2.5288248E-1,-9.9624686E-2,-2.5960494E-2,2.3737401E-1,-1.2583569E-1,3.7889337E-4,-1.21548705E-1],"split_indices":[3521,7333,19864,0,0,12837,0,0,0],"split_type":[0,0,0,0,0,0,0,0,0],"sum_hessian":[2.4988252E3,8.974961E0,2.4898503E3,7.2815247E0,1.6934359E0,2.4859185E3,3.931683E0,2.4818064E3,4.1122017E0],"tree_param":{"num_deleted":"0","num_feature":"21658","num_nodes":"9","size_leaf_vector":"1"}},{"base_weights":[-7.989106E-3,-1.0346446E-2,1.1719643E-1,-7.5963796E-3,-1.0004481E0,1.16922E-1,-9.838942E-4,-1.1459664E-1,-1.8966367E-2],"categories":[],"categories_nodes":[],"categories_segments":[],"categories_sizes":[],"default_left":[1,1,0,0,1,0,0,0,0],"id":54,"left_children":[1,3,-1,5,7,-1,-1,-1,-1],"loss_changes":[6.964212E0,6.7868896E0,0E0,6.5813947E0,5.972333E-1,0E0,0E0,0E0,0E0],"parents":[2147483647,0,0,1,1,3,3,4,4],"right_children":[2,4,-1,6,8,-1,-1,-1,-1],"split_conditions":[2.2709198E-1,1.9216076E-1,1.1719643E-1,2.767482E-1,2.266782E-1,1.16922E-1,-9.838942E-4,-1.1459664E-1,-1.8966367E-2],"split_indices":[16685,12921,0,9277,16650,0,0,0,0],"split_type":[0,0,0,0,0,0,0,0,0],"sum_hessian":[2.498355E3,2.4943628E3,3.9920695E0,2.4884587E3,5.9041715E0,3.7432785E0,2.4847153E3,4.6552505E0,1.2489208E0],"tree_param":{"num_deleted":"0","num_feature":"21658","num_nodes":"9","size_leaf_vector":"1"}},{"base_weights":[-1.1740106E-2,-9.9445485E-2,-7.6806713E-3,1.313896E-1,-1.0336715E-2,1.05546586E-1,-1.3308915E-3],"categories":[],"categories_nodes":[],"categories_segments":[],"categories_sizes":[],"default_left":[0,0,0,0,0,0,0],"id":55,"left_children":[1,-1,3,-1,5,-1,-1],"loss_changes":[9.878679E0,0E0,8.680328E0,0E0,7.822881E0,0E0,0E0],"parents":[2147483647,0,0,2,2,4,4],"right_children":[2,-1,4,-1,6,-1,-1],"split_conditions":[4.875591E-1,-9.9445485E-2,1.8771112E-1,1.313896E-1,3.5623023E-1,1.05546586E-1,-1.3308915E-3],"split_indices":[19534,0,911,0,16579,0,0],"split_type":[0,0,0,0,0,0,0],"sum_hessian":[2.4772295E3,9.187266E0,2.4680422E3,3.9600189E0,2.4640823E3,5.8677025E0,2.4582146E3],"tree_param":{"num_deleted":"0","num_feature":"21658","num_nodes":"7","size_leaf_vector":"1"}},{"base_weights":[-7.164763E-3,-4.9550654E-3,-1.2920086E-1,-1.8348963E-3,-8.654088E-1,2.5730513E-4,-5.9663404E-2,-1.0215342E-1,1.05870245E-2],"categories":[],"categories_nodes":[],"categories_segments":[],"categories_sizes":[],"default_left":[1,1,0,1,1,0,0,0,0],"id":56,"left_children":[1,3,-1,5,7,-1,-1,-1,-1],"loss_changes":[7.02564E0,6.6394186E0,0E0,6.4661045E0,1.4630938E0,0E0,0E0,0E0,0E0],"parents":[2147483647,0,0,1,1,3,3,4,4],"right_children":[2,4,-1,6,8,-1,-1,-1,-1],"split_conditions":[2.495342E-1,1.7929198E-1,-1.2920086E-1,1.8253607E-1,1.18937746E-1,2.5730513E-4,-5.9663404E-2,-1.0215342E-1,1.05870245E-2],"split_indices":[15499,11038,0,20418,12985,0,0,0,0],"split_type":[0,0,0,0,0,0,0,0,0],"sum_hessian":[2.4758418E3,2.4725933E3,3.248554E0,2.4646582E3,7.9351873E0,2.4475156E3,1.7142416E1,6.7917295E0,1.1434578E0],"tree_param":{"num_deleted":"0","num_feature":"21658","num_nodes":"9","size_leaf_vector":"1"}},{"base_weights":[1.6105289E-2,1.1996673E-2,9.4769925E-1,-1.3517947E-1,1.4724019E-2,1.0417557E0,2.756711E-2,1.1544054E-1,1.1691741E-3,1.1367899E-1,2.4135817E-2],"categories":[],"categories_nodes":[],"categories_segments":[],"categories_sizes":[],"default_left":[1,0,1,0,0,0,0,0,0,0,0],"id":57,"left_children":[1,3,5,-1,7,9,-1,-1,-1,-1,-1],"loss_changes":[9.5233555E0,9.248597E0,4.033928E-1,0E0,8.547226E0,4.272604E-1,0E0,0E0,0E0,0E0,0E0],"parents":[2147483647,0,0,1,1,2,2,4,4,5,5],"right_children":[2,4,6,-1,8,10,-1,-1,-1,-1,-1],"split_conditions":[1.8284711E-1,2.7679387E-1,2.2820829E-1,-1.3517947E-1,3.651916E-1,2.9212403E-1,2.756711E-2,1.1544054E-1,1.1691741E-3,1.1367899E-1,2.4135817E-2],"split_indices":[9506,11759,6498,0,7973,9506,0,0,0,0,0],"split_type":[0,0,0,0,0,0,0,0,0,0,0],"sum_hessian":[2.49007E3,2.4801445E3,9.9253235E0,3.96273E0,2.476182E3,8.224116E0,1.701207E0,5.563162E0,2.4706187E3,6.9755955E0,1.2485206E0],"tree_param":{"num_deleted":"0","num_feature":"21658","num_nodes":"11","size_leaf_vector":"1"}},{"base_weights":[1.4428813E-3,-1.3094723E-1,3.8208114E-3,7.4889684E-1,-2.553404E-4,8.402123E-2,1.2687672E-3,2.1811777E-4,-1.2003553E-1],"categories":[],"categories_nodes":[],"categories_segments":[],"categories_sizes":[],"default_left":[0,0,0,1,1,0,0,0,0],"id":58,"left_children":[1,-1,3,5,7,-1,-1,-1,-1],"loss_changes":[7.7204456E0,0E0,7.5064964E0,8.934312E-1,7.193291E0,0E0,0E0,0E0,0E0],"parents":[2147483647,0,0,2,2,3,3,4,4],"right_children":[2,-1,4,6,8,-1,-1,-1,-1],"split_conditions":[2.631032E-1,-1.3094723E-1,2.980646E-1,1.7125484E-1,2.3591807E-1,8.402123E-2,1.2687672E-3,2.1811777E-4,-1.2003553E-1],"split_indices":[5096,0,9135,1365,14436,0,0,0,0],"split_type":[0,0,0,0,0,0,0,0,0],"sum_hessian":[2.474068E3,3.484421E0,2.4705835E3,1.24482765E1,2.4581353E3,1.0948957E1,1.499319E0,2.454151E3,3.9843886E0],"tree_param":{"num_deleted":"0","num_feature":"21658","num_nodes":"9","size_leaf_vector":"1"}},{"base_weights":[-6.435758E-4,-1.5255542E-1,1.798513E-3,1.1439062E0,-9.4806735E-4,3.998677E-2,1.3031118E-1,-1.3488157E-1,1.19895616E-4],"categories":[],"categories_nodes":[],"categories_segments":[],"categories_sizes":[],"default_left":[0,0,0,0,0,0,0,0,0],"id":59,"left_children":[1,-1,3,5,7,-1,-1,-1,-1],"loss_changes":[9.292268E0,0E0,7.816754E0,1.8707323E-1,7.19747E0,0E0,0E0,0E0,0E0],"parents":[2147483647,0,0,2,2,3,3,4,4],"right_children":[2,-1,4,6,8,-1,-1,-1,-1],"split_conditions":[2.9104194E-1,-1.5255542E-1,2.1005125E-1,1.6995463E-1,3.8800606E-1,3.998677E-2,1.3031118E-1,-1.3488157E-1,1.19895616E-4],"split_indices":[13545,0,20582,20582,20159,0,0,0,0],"split_type":[0,0,0,0,0,0,0,0,0],"sum_hessian":[2.4935237E3,2.9896789E0,2.490534E3,4.9781814E0,2.485556E3,1.4964148E0,3.4817667E0,2.9554331E0,2.4826003E3],"tree_param":{"num_deleted":"0","num_feature":"21658","num_nodes":"9","size_leaf_vector":"1"}},{"base_weights":[-2.087747E-3,-1.2961207E-1,1.2072515E-4,2.4915151E-3,-1.1881119E0,1.4006847E-1,5.19472E-5,-1.4370105E-1,-2.4952037E-2],"categories":[],"categories_nodes":[],"categories_segments":[],"categories_sizes":[],"default_left":[0,0,1,0,0,0,0,0,0],"id":60,"left_children":[1,-1,3,5,7,-1,-1,-1,-1],"loss_changes":[7.1181984E0,0E0,7.010279E0,6.847053E0,7.990556E-1,0E0,0E0,0E0,0E0],"parents":[2147483647,0,0,2,2,3,3,4,4],"right_children":[2,-1,4,6,8,-1,-1,-1,-1],"split_conditions":[2.1015608E-1,-1.2961207E-1,2.5035924E-1,4.270429E-1,3.207332E-1,1.4006847E-1,5.19472E-5,-1.4370105E-1,-2.4952037E-2],"split_indices":[21243,0,13498,2826,13498,0,0,0,0],"split_type":[0,0,0,0,0,0,0,0,0],"sum_hessian":[2.4897107E3,3.2436433E0,2.486467E3,2.4825117E3,3.955263E0,2.4974961E0,2.4800142E3,2.7065132E0,1.2487497E0],"tree_param":{"num_deleted":"0","num_feature":"21658","num_nodes":"9","size_leaf_vector":"1"}},{"base_weights":[7.684279E-3,4.3415315E-3,8.8796794E-2,9.477869E-2,1.3319027E-3,3.6978783E-4,-1.1757598E-1],"categories":[],"categories_nodes":[],"categories_segments":[],"categories_sizes":[],"default_left":[1,0,0,0,1,0,0],"id":61,"left_children":[1,3,-1,-1,5,-1,-1],"loss_changes":[7.3605294E0,7.0809493E0,0E0,0E0,6.931447E0,0E0,0E0],"parents":[2147483647,0,0,1,1,4,4],"right_children":[2,4,-1,-1,6,-1,-1],"split_conditions":[1.8116109E-1,1.1378161E0,8.8796794E-2,9.477869E-2,2.3419894E-1,3.6978783E-4,-1.1757598E-1],"split_indices":[8869,16584,0,0,1901,0,0],"split_type":[0,0,0,0,0,0,0],"sum_hessian":[2.5017085E3,2.4932458E3,8.462801E0,6.9300365E0,2.4863157E3,2.482323E3,3.9926558E0],"tree_param":{"num_deleted":"0","num_feature":"21658","num_nodes":"7","size_leaf_vector":"1"}},{"base_weights":[2.1567738E-3,6.689525E-1,-2.0333873E-3,-2.5415784E-1,1.0332781E0,-6.53036E-1,2.1028854E-3,-4.9093284E-2,2.8963117E-2,1.1605729E-1,2.8871069E-2,-7.968533E-2,4.2369857E-2,1.13225535E-1,-2.93753E-5],"categories":[],"categories_nodes":[],"categories_segments":[],"categories_sizes":[],"default_left":[0,0,0,0,1,1,0,0,0,0,0,0,0,0,0],"id":62,"left_children":[1,3,5,7,9,11,13,-1,-1,-1,-1,-1,-1,-1,-1],"loss_changes":[6.9583573E0,5.4931197E0,6.667054E0,8.121973E-1,7.405653E-1,2.7583046E0,6.665599E0,0E0,0E0,0E0,0E0,0E0,0E0,0E0,0E0],"parents":[2147483647,0,0,1,1,2,2,3,3,4,4,5,5,6,6],"right_children":[2,4,6,8,10,12,14,-1,-1,-1,-1,-1,-1,-1,-1],"split_conditions":[1.866482E-1,2.1118802E-1,1.2797727E-1,1.7580746E-1,9.762649E-2,1.1980603E-1,5.062032E-1,-4.9093284E-2,2.8963117E-2,1.1605729E-1,2.8871069E-2,-7.968533E-2,4.2369857E-2,1.13225535E-1,-2.93753E-5],"split_indices":[2496,18710,16582,2496,12985,20418,15228,0,0,0,0,0,0,0,0],"split_type":[0,0,0,0,0,0,0,0,0,0,0,0,0,0,0],"sum_hessian":[2.488994E3,1.4552501E1,2.4744414E3,4.203717E0,1.03487835E1,1.4632111E1,2.459809E3,2.996284E0,1.2074331E0,8.360681E0,1.9881027E0,1.31373205E1,1.4947901E0,4.2076893E0,2.4556016E3],"tree_param":{"num_deleted":"0","num_feature":"21658","num_nodes":"15","size_leaf_vector":"1"}},{"base_weights":[2.8898383E-3,6.6151714E-1,-1.8987707E-3,3.827844E-1,1.2241536E-1,-1.1018589E0,5.5764196E-4,1.3325162E-3,6.361257E-2,-2.0649932E-2,-1.3165526E-1,3.9648308E-4,-7.88992E-2],"categories":[],"categories_nodes":[],"categories_segments":[],"categories_sizes":[],"default_left":[0,1,0,0,0,0,1,0,0,0,0,0,0],"id":63,"left_children":[1,3,5,7,-1,9,11,-1,-1,-1,-1,-1,-1],"loss_changes":[7.8197985E0,2.3380451E0,6.6531115E0,1.2478749E0,0E0,7.828083E-1,6.6144753E0,0E0,0E0,0E0,0E0,0E0,0E0],"parents":[2147483647,0,0,1,1,2,2,3,3,5,5,6,6],"right_children":[2,4,6,8,-1,10,12,-1,-1,-1,-1,-1,-1],"split_conditions":[1.726359E-1,6.7936465E-2,2.7686325E-1,1.5070191E-1,1.2241536E-1,2.1417625E-1,2.292052E-1,1.3325162E-3,6.361257E-2,-2.0649932E-2,-1.3165526E-1,3.9648308E-4,-7.88992E-2],"split_indices":[13224,12985,2,13224,0,9986,10798,0,0,0,0,0,0],"split_type":[0,0,0,0,0,0,0,0,0,0,0,0,0],"sum_hessian":[2.478001E3,1.6896563E1,2.4611042E3,1.242266E1,4.4739037E0,4.486585E0,2.4566177E3,5.481433E0,6.9412265E0,1.2471792E0,3.2394059E0,2.4470527E3,9.56493E0],"tree_param":{"num_deleted":"0","num_feature":"21658","num_nodes":"13","size_leaf_vector":"1"}},{"base_weights":[-6.6286395E-3,-3.9834334E-3,-1.0386652E0,-6.85574E-1,-2.891073E-4,-1.13823906E-1,-2.8523091E-2,3.6969468E-2,-9.022197E-2,-1.3623156E-1,1.500869E-4],"categories":[],"categories_nodes":[],"categories_segments":[],"categories_sizes":[],"default_left":[1,0,1,0,0,0,0,0,0,0,0],"id":64,"left_children":[1,3,5,7,9,-1,-1,-1,-1,-1,-1],"loss_changes":[6.787084E0,6.25032E0,1.521802E-1,3.3928366E0,6.023735E0,0E0,0E0,0E0,0E0,0E0,0E0],"parents":[2147483647,0,0,1,1,2,2,3,3,4,4],"right_children":[2,4,6,8,10,-1,-1,-1,-1,-1,-1],"split_conditions":[2.2960308E-1,3.483778E-1,1.1836822E-1,1.6939038E-1,2.492453E-1,-1.13823906E-1,-2.8523091E-2,3.6969468E-2,-9.022197E-2,-1.3623156E-1,1.500869E-4],"split_indices":[3034,18196,12985,18710,11580,0,0,0,0,0,0],"split_type":[0,0,0,0,0,0,0,0,0,0,0],"sum_hessian":[2.486673E3,2.4813171E3,5.3559885E0,1.2381587E1,2.4689355E3,4.279655E0,1.0763339E0,1.9886312E0,1.0392956E1,2.2428315E0,2.4666926E3],"tree_param":{"num_deleted":"0","num_feature":"21658","num_nodes":"11","size_leaf_vector":"1"}},{"base_weights":[1.2027725E-2,1.088278E0,9.202621E-3,2.398304E-2,1.2440592E-1,8.965867E-1,5.8958246E-3,1.3305838E-2,9.9907726E-2,1.2739639E-1,3.7142177E-4],"categories":[],"categories_nodes":[],"categories_segments":[],"categories_sizes":[],"default_left":[0,0,0,0,0,0,0,0,0,0,0],"id":65,"left_children":[1,3,5,-1,-1,7,9,-1,-1,-1,-1],"loss_changes":[7.533174E0,5.589895E-1,7.25853E0,0E0,0E0,5.8572197E-1,6.820646E0,0E0,0E0,0E0,0E0],"parents":[2147483647,0,0,1,1,2,2,5,5,6,6],"right_children":[2,4,6,-1,-1,8,10,-1,-1,-1,-1],"split_conditions":[3.3022362E-1,1.9128689E-1,3.043303E-1,2.398304E-2,1.2440592E-1,1.1612564E-1,1.4557514E-1,1.3305838E-2,9.9907726E-2,1.2739639E-1,3.7142177E-4],"split_indices":[13227,13227,10513,0,0,12985,18462,0,0,0,0],"split_type":[0,0,0,0,0,0,0,0,0,0,0],"sum_hessian":[2.4798887E3,5.4866323E0,2.474402E3,1.24506E0,4.2415724E0,8.183606E0,2.4662185E3,1.2404935E0,6.943113E0,3.2344327E0,2.4629841E3],"tree_param":{"num_deleted":"0","num_feature":"21658","num_nodes":"11","size_leaf_vector":"1"}},{"base_weights":[-1.0022235E-2,-1.3331501E-1,-7.740513E-3,1.2960301E-1,-9.987753E-3,1.2742393E-1,-1.2186924E-3],"categories":[],"categories_nodes":[],"categories_segments":[],"categories_sizes":[],"default_left":[0,0,0,0,0,0,0],"id":66,"left_children":[1,-1,3,-1,5,-1,-1],"loss_changes":[7.4321547E0,0E0,7.22622E0,0E0,6.9595385E0,0E0,0E0],"parents":[2147483647,0,0,2,2,4,4],"right_children":[2,-1,4,-1,6,-1,-1],"split_conditions":[4.910071E-1,-1.3331501E-1,5.4044765E-1,1.2960301E-1,4.9702182E-1,1.2742393E-1,-1.2186924E-3],"split_indices":[9673,0,985,0,17575,0,0],"split_type":[0,0,0,0,0,0,0],"sum_hessian":[2.4642034E3,3.2380624E0,2.4609653E3,3.2439036E0,2.4577214E3,3.2127073E0,2.4545088E3],"tree_param":{"num_deleted":"0","num_feature":"21658","num_nodes":"7","size_leaf_vector":"1"}},{"base_weights":[7.291084E-3,5.2861897E-3,1.4223807E-1,1.1986755E0,2.92827E-3,2.5409117E-2,1.4289789E-1,-4.746002E-2,8.7467505E-4],"categories":[],"categories_nodes":[],"categories_segments":[],"categories_sizes":[],"default_left":[1,0,0,0,0,0,0,0,0],"id":67,"left_children":[1,3,-1,5,7,-1,-1,-1,-1],"loss_changes":[7.016123E0,6.9556932E0,0E0,6.972871E-1,6.864975E0,0E0,0E0,0E0,0E0],"parents":[2147483647,0,0,1,1,3,3,4,4],"right_children":[2,4,-1,6,8,-1,-1,-1,-1],"split_conditions":[2.7955332E-1,4.7329873E-1,1.4223807E-1,2.1625057E-1,2.8335714E-1,2.5409117E-2,1.4289789E-1,-4.746002E-2,8.7467505E-4],"split_indices":[19001,20725,0,13416,212,0,0,0,0],"split_type":[0,0,0,0,0,0,0,0,0],"sum_hessian":[2.4746365E3,2.4721377E3,2.4987812E0,3.8743849E0,2.4682634E3,1.1717532E0,2.7026317E0,2.8742834E1,2.4395205E3],"tree_param":{"num_deleted":"0","num_feature":"21658","num_nodes":"9","size_leaf_vector":"1"}},{"base_weights":[-1.093714E-2,-6.882397E-3,-9.057241E-1,-3.6486154E-3,-1.0038362E0,-1.8249884E-2,-1.1583766E0,-1.3400962E-5,-9.079088E-2,-1.1979649E-1,-1.9731125E-2,-2.3860063E-2,2.1027267E-2,-1.8214576E-2,-1.2960654E-1],"categories":[],"categories_nodes":[],"categories_segments":[],"categories_sizes":[],"default_left":[1,1,0,1,1,0,0,0,0,0,0,0,0,0,0],"id":68,"left_children":[1,3,5,7,9,11,13,-1,-1,-1,-1,-1,-1,-1,-1],"loss_changes":[9.00517E0,7.9709296E0,2.4894266E0,7.8389235E0,1.0152168E0,2.2627382E-1,9.332886E-1,0E0,0E0,0E0,0E0,0E0,0E0,0E0,0E0],"parents":[2147483647,0,0,1,1,2,2,3,3,4,4,5,5,6,6],"right_children":[2,4,6,8,10,12,14,-1,-1,-1,-1,-1,-1,-1,-1],"split_conditions":[1.778109E-1,2.7198437E-1,1.2775654E-1,1.6532177E-1,2.5533387E-1,2.110275E-1,2.012547E-1,-1.3400962E-5,-9.079088E-2,-1.1979649E-1,-1.9731125E-2,-2.3860063E-2,2.1027267E-2,-1.8214576E-2,-1.2960654E-1],"split_indices":[5284,15717,12985,11038,18565,5284,20441,0,0,0,0,0,0,0,0],"split_type":[0,0,0,0,0,0,0,0,0,0,0,0,0,0,0],"sum_hessian":[2.4827588E3,2.472562E3,1.0196767E1,2.465568E3,6.9938116E0,2.4972146E0,7.699552E0,2.4570186E3,8.549595E0,5.245814E0,1.7479978E0,1.2488865E0,1.2483281E0,1.2388482E0,6.460704E0],"tree_param":{"num_deleted":"0","num_feature":"21658","num_nodes":"15","size_leaf_vector":"1"}},{"base_weights":[3.0130937E-3,-6.677156E-5,1.0406339E-1,-2.2963746E-3,1.3973843E-1,-7.374188E-2,1.0744367E-4],"categories":[],"categories_nodes":[],"categories_segments":[],"categories_sizes":[],"default_left":[1,1,0,0,0,0,0],"id":69,"left_children":[1,3,-1,5,-1,-1,-1],"loss_changes":[7.998003E0,7.7810364E0,0E0,6.1791058E0,0E0,0E0,0E0],"parents":[2147483647,0,0,1,1,3,3],"right_children":[2,4,-1,6,-1,-1,-1],"split_conditions":[1.6910043E-1,2.3555486E-1,1.0406339E-1,3.466333E-1,1.3973843E-1,-7.374188E-2,1.0744367E-4],"split_indices":[5265,16685,0,2995,0,0,0],"split_type":[0,0,0,0,0,0,0],"sum_hessian":[2.5016917E3,2.4952852E3,6.4065676E0,2.492307E3,2.9780657E0,1.0382015E1,2.481925E3],"tree_param":{"num_deleted":"0","num_feature":"21658","num_nodes":"7","size_leaf_vector":"1"}},{"base_weights":[1.29399095E-2,1.0251244E-2,1.1815121E-1,1.3441532E-2,-9.627504E-1,1.017375E-1,1.0692346E-3,-1.3164663E-1,-3.655144E-2],"categories":[],"categories_nodes":[],"categories_segments":[],"categories_sizes":[],"default_left":[1,1,0,0,0,0,0,0,0],"id":70,"left_children":[1,3,-1,5,7,-1,-1,-1,-1],"loss_changes":[7.7749176E0,7.6918917E0,0E0,6.7971234E0,1.2295876E0,0E0,0E0,0E0,0E0],"parents":[2147483647,0,0,1,1,3,3,4,4],"right_children":[2,4,-1,6,8,-1,-1,-1,-1],"split_conditions":[2.28478E-1,2.1018715E-1,1.1815121E-1,5.161816E-1,3.0709648E-1,1.017375E-1,1.0692346E-3,-1.3164663E-1,-3.655144E-2],"split_indices":[13851,9978,0,19215,9978,0,0,0,0],"split_type":[0,0,0,0,0,0,0,0,0],"sum_hessian":[2.4774453E3,2.472765E3,4.6805973E0,2.4656665E3,7.0982685E0,5.72569E0,2.459941E3,3.7016711E0,3.3965974E0],"tree_param":{"num_deleted":"0","num_feature":"21658","num_nodes":"9","size_leaf_vector":"1"}},{"base_weights":[-2.0363564E-3,1.3967791E-1,-4.1375593E-3,-4.9565187E-1,1.778404E-3,-1.22642405E-2,-9.310234E-2,7.208382E-2,-2.0310305E-4],"categories":[],"categories_nodes":[],"categories_segments":[],"categories_sizes":[],"default_left":[0,0,0,0,0,0,0,0,0],"id":71,"left_children":[1,-1,3,5,7,-1,-1,-1,-1],"loss_changes":[7.3080616E0,0E0,7.2171803E0,4.6796036E0,6.7213016E0,0E0,0E0,0E0,0E0],"parents":[2147483647,0,0,2,2,3,3,4,4],"right_children":[2,-1,4,6,8,-1,-1,-1,-1],"split_conditions":[2.2337441E-1,1.3967791E-1,2.3502026E-1,1.713716E-1,3.042747E-1,-1.22642405E-2,-9.310234E-2,7.208382E-2,-2.0310305E-4],"split_indices":[1020,0,13174,13174,9135,0,0,0,0],"split_type":[0,0,0,0,0,0,0,0,0],"sum_hessian":[2.48345E3,2.7293234E0,2.4807205E3,2.85188E1,2.4522017E3,1.6049719E1,1.2469082E1,1.1930889E1,2.4402708E3],"tree_param":{"num_deleted":"0","num_feature":"21658","num_nodes":"9","size_leaf_vector":"1"}},{"base_weights":[1.0395522E-2,-2.991177E-1,2.1402348E-2,-2.3026447E-1,-1.0345902E0,2.902994E-2,-4.5800903E-1,4.5431387E-2,-2.8657077E-2,-5.303344E-3,-1.2254285E-1,3.3367765E-3,-7.650858E-2,-5.3387195E-2,8.29913E-2],"categories":[],"categories_nodes":[],"categories_segments":[],"categories_sizes":[],"default_left":[0,1,1,0,0,1,1,0,0,0,0,0,0,0,0],"id":72,"left_children":[1,3,5,7,9,11,13,-1,-1,-1,-1,-1,-1,-1,-1],"loss_changes":[8.506894E0,4.104261E0,8.827654E0,3.2022476E0,1.2564435E0,8.20203E0,4.1372905E0,0E0,0E0,0E0,0E0,0E0,0E0,0E0,0E0],"parents":[2147483647,0,0,1,1,2,2,3,3,4,4,5,5,6,6],"right_children":[2,4,6,8,10,12,14,-1,-1,-1,-1,-1,-1,-1,-1],"split_conditions":[3.7476772E-1,1.217859E-1,1.2348475E-1,2.1221444E-1,2.0829315E-1,2.3396823E-1,1.6208665E-1,4.5431387E-2,-2.8657077E-2,-5.303344E-3,-1.2254285E-1,3.3367765E-3,-7.650858E-2,-5.3387195E-2,8.29913E-2],"split_indices":[16582,9975,20418,19692,10798,20274,14239,0,0,0,0,0,0,0,0],"split_type":[0,0,0,0,0,0,0,0,0,0,0,0,0,0,0],"sum_hessian":[2.494185E3,8.475272E1,2.4094324E3,7.869826E1,6.0544667E0,2.3726228E3,3.6809753E1,5.4437623E0,7.325449E1,1.1935357E0,4.860931E0,2.3606855E3,1.1937167E1,3.5315056E1,1.4946972E0],"tree_param":{"num_deleted":"0","num_feature":"21658","num_nodes":"15","size_leaf_vector":"1"}},{"base_weights":[-5.759212E-4,-3.7594668E-3,1.013211E0,-6.9525815E-3,9.5467585E-1,1.2589602E-1,3.4880213E-2,-1.1244591E-1,-4.3274672E-4,5.0057907E-2,1.4188753E-1],"categories":[],"categories_nodes":[],"categories_segments":[],"categories_sizes":[],"default_left":[1,1,0,0,0,0,0,0,0,0,0],"id":73,"left_children":[1,3,5,7,9,-1,-1,-1,-1,-1,-1],"loss_changes":[7.947759E0,7.518901E0,8.1955814E-1,7.175118E0,1.0093856E0,0E0,0E0,0E0,0E0,0E0,0E0],"parents":[2147483647,0,0,1,1,2,2,3,3,4,4],"right_children":[2,4,6,8,10,-1,-1,-1,-1,-1,-1],"split_conditions":[2.2891572E-1,2.2623445E-1,3.0156755E-1,3.4530556E-1,3.5431537E-1,1.2589602E-1,3.4880213E-2,-1.1244591E-1,-4.3274672E-4,5.0057907E-2,1.4188753E-1],"split_indices":[13494,5542,13494,19537,5542,0,0,0,0,0,0],"split_type":[0,0,0,0,0,0,0,0,0,0,0],"sum_hessian":[2.4603809E3,2.4536719E3,6.7088547E0,2.446514E3,7.1580386E0,4.244176E0,2.4646785E0,4.732073E0,2.4417817E3,4.669012E0,2.4890265E0],"tree_param":{"num_deleted":"0","num_feature":"21658","num_nodes":"11","size_leaf_vector":"1"}},{"base_weights":[2.8942928E-3,5.7439837E-3,-1.0849749E0,8.285125E-3,-1.0903417E0,-1.5005814E-1,-3.0069894E-1,1.0280671E-3,-1.3314985E-1,-1.1526934E-2,-1.4867984E-1,2.1059863E-2,-6.7834444E-2],"categories":[],"categories_nodes":[],"categories_segments":[],"categories_sizes":[],"default_left":[1,1,0,1,0,0,0,0,0,0,0,0,0],"id":74,"left_children":[1,3,5,7,9,-1,11,-1,-1,-1,-1,-1,-1],"loss_changes":[7.7047315E0,6.910528E0,1.6652846E0,6.625719E0,2.047079E0,0E0,8.1861776E-1,0E0,0E0,0E0,0E0,0E0,0E0],"parents":[2147483647,0,0,1,1,2,2,3,3,4,4,6,6],"right_children":[2,4,6,8,10,-1,12,-1,-1,-1,-1,-1,-1],"split_conditions":[2.4810143E-1,2.2381054E-1,3.0558154E-1,2.3175912E-1,1.7112164E-1,-1.5005814E-1,3.2592717E-1,1.0280671E-3,-1.3314985E-1,-1.1526934E-2,-1.4867984E-1,2.1059863E-2,-6.7834444E-2],"split_indices":[2186,13139,2186,17966,12985,0,2186,0,0,0,0,0,0],"split_type":[0,0,0,0,0,0,0,0,0,0,0,0,0],"sum_hessian":[2.4823142E3,2.4768208E3,5.4933515E0,2.472082E3,4.7387795E0,2.9936254E0,2.4997258E0,2.4693962E3,2.6857255E0,1.7429061E0,2.9958735E0,1.2498629E0,1.2498629E0],"tree_param":{"num_deleted":"0","num_feature":"21658","num_nodes":"13","size_leaf_vector":"1"}},{"base_weights":[-2.3892524E-2,-2.0261707E-2,-8.7769836E-1,-1.3964166E-1,-1.8301161E-2,-1.6417861E-2,-9.5642984E-2,9.8497644E-2,-2.0916911E-3],"categories":[],"categories_nodes":[],"categories_segments":[],"categories_sizes":[],"default_left":[1,0,0,0,0,0,0,0,0],"id":75,"left_children":[1,3,5,-1,7,-1,-1,-1,-1],"loss_changes":[7.642836E0,6.616196E0,4.294834E-1,0E0,6.474414E0,0E0,0E0,0E0,0E0],"parents":[2147483647,0,0,1,1,2,2,4,4],"right_children":[2,4,6,-1,8,-1,-1,-1,-1],"split_conditions":[1.6427341E-1,7.4538124E-1,2.0915967E-1,-1.3964166E-1,4.1190535E-1,-1.6417861E-2,-9.5642984E-2,9.8497644E-2,-2.0916911E-3],"split_indices":[15667,2129,1836,0,2740,0,0,0,0],"split_type":[0,0,0,0,0,0,0,0,0],"sum_hessian":[2.4701575E3,2.460717E3,9.44049E0,2.4888299E0,2.4582283E3,1.244774E0,8.195716E0,5.415834E0,2.4528125E3],"tree_param":{"num_deleted":"0","num_feature":"21658","num_nodes":"9","size_leaf_vector":"1"}},{"base_weights":[9.1857165E-3,1.1436996E-2,-1.4003143E-1,-7.236445E-1,1.4969062E-2,4.6319075E-2,-1.0451802E-1,2.0193688E-3,-4.2316165E-2],"categories":[],"categories_nodes":[],"categories_segments":[],"categories_sizes":[],"default_left":[1,0,0,0,1,0,0,0,0],"id":76,"left_children":[1,3,-1,5,7,-1,-1,-1,-1],"loss_changes":[7.924856E0,6.4742556E0,0E0,5.0347137E0,5.6819916E0,0E0,0E0,0E0,0E0],"parents":[2147483647,0,0,1,1,3,3,4,4],"right_children":[2,4,-1,6,8,-1,-1,-1,-1],"split_conditions":[2.8096133E-1,2.4363875E-1,-1.4003143E-1,1.5916465E-1,1.713716E-1,4.6319075E-2,-1.0451802E-1,2.0193688E-3,-4.2316165E-2],"split_indices":[7986,16624,0,16624,13174,0,0,0,0],"split_type":[0,0,0,0,0,0,0,0,0],"sum_hessian":[2.4914033E3,2.4884207E3,2.9826665E0,1.092473E1,2.4774958E3,2.2348852E0,8.689845E0,2.4492432E3,2.825284E1],"tree_param":{"num_deleted":"0","num_feature":"21658","num_nodes":"9","size_leaf_vector":"1"}},{"base_weights":[5.8719018E-3,-1.3515954E-1,7.8979535E-3,5.67832E-3,1.17096715E-1,7.390617E-4,-1.444167E-1],"categories":[],"categories_nodes":[],"categories_segments":[],"categories_sizes":[],"default_left":[0,0,1,1,0,0,0],"id":77,"left_children":[1,-1,3,5,-1,-1,-1],"loss_changes":[6.8787913E0,0E0,6.4331155E0,6.194129E0,0E0,0E0,0E0],"parents":[2147483647,0,0,2,2,3,3],"right_children":[2,-1,4,6,-1,-1,-1],"split_conditions":[8.2043016E-1,-1.3515954E-1,2.930928E-1,2.6087826E-1,1.17096715E-1,7.390617E-4,-1.444167E-1],"split_indices":[3341,0,20652,14102,0,0,0],"split_type":[0,0,0,0,0,0,0],"sum_hessian":[2.496226E3,2.7274222E0,2.4934985E3,2.489752E3,3.746629E0,2.4878086E3,1.9432505E0],"tree_param":{"num_deleted":"0","num_feature":"21658","num_nodes":"7","size_leaf_vector":"1"}},{"base_weights":[1.4853008E-2,6.55173E-1,1.01990765E-2,-5.772878E-2,8.2388335E-1,-9.3304354E-1,1.3412272E-2,-2.8644035E-2,9.3558334E-2,-1.0371158E-1,-1.8725818E-2,-1.0055404E-1,1.5985174E-3],"categories":[],"categories_nodes":[],"categories_segments":[],"categories_sizes":[],"default_left":[0,0,0,0,0,1,0,0,0,0,0,0,0],"id":78,"left_children":[1,3,5,-1,7,9,11,-1,-1,-1,-1,-1,-1],"loss_changes":[7.401344E0,4.202066E0,7.495581E0,0E0,2.274167E0,4.5747757E-1,6.4695444E0,0E0,0E0,0E0,0E0,0E0,0E0],"parents":[2147483647,0,0,1,1,2,2,4,4,5,5,6,6],"right_children":[2,4,6,-1,8,10,12,-1,-1,-1,-1,-1,-1],"split_conditions":[1.673902E-1,1.343508E-1,2.2592075E-1,-5.772878E-2,1.5318528E-1,1.3068885E-1,3.1355277E-1,-2.8644035E-2,9.3558334E-2,-1.0371158E-1,-1.8725818E-2,-1.0055404E-1,1.5985174E-3],"split_indices":[19701,18565,8013,0,3010,2136,17979,0,0,0,0,0,0],"split_type":[0,0,0,0,0,0,0,0,0,0,0,0,0],"sum_hessian":[2.4849102E3,1.6921743E1,2.4679885E3,1.7458937E0,1.5175849E1,7.396329E0,2.4605923E3,1.2441663E0,1.3931684E1,6.1477866E0,1.2485425E0,5.215626E0,2.4553765E3],"tree_param":{"num_deleted":"0","num_feature":"21658","num_nodes":"13","size_leaf_vector":"1"}},{"base_weights":[-7.682842E-3,1.4083576E-1,-9.684427E-3,-1.1668395E-2,1.329041E-1,-1.4611416E-3,8.726169E-2],"categories":[],"categories_nodes":[],"categories_segments":[],"categories_sizes":[],"default_left":[0,0,1,1,0,0,0],"id":79,"left_children":[1,-1,3,5,-1,-1,-1],"loss_changes":[7.0266933E0,0E0,6.5806656E0,6.4386754E0,0E0,0E0,0E0],"parents":[2147483647,0,0,2,2,3,3],"right_children":[2,-1,4,6,-1,-1,-1],"split_conditions":[8.013249E-1,1.4083576E-1,2.3117611E-1,2.0191288E-1,1.329041E-1,-1.4611416E-3,8.726169E-2],"split_indices":[16299,0,10085,14533,0,0,0],"split_type":[0,0,0,0,0,0,0],"sum_hessian":[2.4733306E3,2.4993775E0,2.4708313E3,2.4681648E3,2.6664958E0,2.4609578E3,7.2069206E0],"tree_param":{"num_deleted":"0","num_feature":"21658","num_nodes":"7","size_leaf_vector":"1"}},{"base_weights":[3.1044504E-3,-9.8073184E-2,6.3225273E-3,-7.136092E-1,1.0009995E-2,-8.210235E-2,5.4335254E-3,-1.2635978E-1,1.2013692E-3],"categories":[],"categories_nodes":[],"categories_segments":[],"categories_sizes":[],"default_left":[0,0,0,1,0,0,0,0,0],"id":80,"left_children":[1,-1,3,5,7,-1,-1,-1,-1],"loss_changes":[7.886213E0,0E0,6.595587E0,1.0889654E0,6.3187404E0,0E0,0E0,0E0,0E0],"parents":[2147483647,0,0,2,2,3,3,4,4],"right_children":[2,-1,4,6,8,-1,-1,-1,-1],"split_conditions":[3.31004E-1,-9.8073184E-2,4.323569E-1,1.7358679E-1,3.186828E-1,-8.210235E-2,5.4335254E-3,-1.2635978E-1,1.2013692E-3],"split_indices":[16009,0,20855,6441,20159,0,0,0,0],"split_type":[0,0,0,0,0,0,0,0,0],"sum_hessian":[2.4879014E3,7.1209283E0,2.4807803E3,1.1660655E1,2.4691196E3,1.0169152E1,1.4915031E0,2.889419E0,2.4662302E3],"tree_param":{"num_deleted":"0","num_feature":"21658","num_nodes":"9","size_leaf_vector":"1"}},{"base_weights":[3.927131E-3,1.1310161E-2,-4.2748484E-1,8.470595E-3,9.545502E-2,6.0108703E-2,-5.0828236E-1,-1.1916723E-1,1.0557803E-3,-1.3252233E-1,-3.750634E-2],"categories":[],"categories_nodes":[],"categories_segments":[],"categories_sizes":[],"default_left":[1,1,0,0,0,0,0,0,0,0,0],"id":81,"left_children":[1,3,5,7,-1,-1,9,-1,-1,-1,-1],"loss_changes":[7.8971868E0,6.5195804E0,3.7725205E0,6.101741E0,0E0,0E0,3.7714806E0,0E0,0E0,0E0,0E0],"parents":[2147483647,0,0,1,1,2,2,3,3,6,6],"right_children":[2,4,6,8,-1,-1,10,-1,-1,-1,-1],"split_conditions":[1.6897428E-1,1.6910043E-1,2.230571E-1,3.8893962E-1,9.545502E-2,6.0108703E-2,1.7784473E-1,-1.1916723E-1,1.0557803E-3,-1.3252233E-1,-3.750634E-2],"split_indices":[9975,5265,2136,4149,0,0,9975,0,0,0,0],"split_type":[0,0,0,0,0,0,0,0,0,0,0],"sum_hessian":[2.4768762E3,2.4361584E3,4.071776E1,2.4298525E3,6.305941E0,2.4965572E0,3.82212E1,3.2290182E0,2.4266235E3,4.1043468E0,3.4116856E1],"tree_param":{"num_deleted":"0","num_feature":"21658","num_nodes":"11","size_leaf_vector":"1"}},{"base_weights":[-3.4611044E-3,-6.5131575E-1,1.2839384E-3,-7.922455E-1,3.2615434E-2,9.401398E-1,-1.7459528E-3,-3.54557E-2,-1.3599743E-1,-2.4415247E-2,1.1961321E-1,-4.1572545E-2,5.266948E-4],"categories":[],"categories_nodes":[],"categories_segments":[],"categories_sizes":[],"default_left":[0,1,0,0,0,0,0,0,0,0,0,0,0],"id":82,"left_children":[1,3,5,7,-1,9,11,-1,-1,-1,-1,-1,-1],"loss_changes":[7.6722507E0,2.7581897E0,7.0516458E0,3.531314E0,0E0,2.7096071E0,7.1770935E0,0E0,0E0,0E0,0E0,0E0,0E0],"parents":[2147483647,0,0,1,1,2,2,3,3,5,5,6,6],"right_children":[2,4,6,8,-1,10,12,-1,-1,-1,-1,-1,-1],"split_conditions":[2.3591878E-1,2.1385935E-1,4.6059322E-1,1.7276353E-1,3.2615434E-2,1.9078515E-1,5.390304E-1,-3.54557E-2,-1.3599743E-1,-2.4415247E-2,1.1961321E-1,-4.1572545E-2,5.266948E-4],"split_indices":[7015,2136,13227,2136,0,13227,20794,0,0,0,0,0,0],"split_type":[0,0,0,0,0,0,0,0,0,0,0,0,0],"sum_hessian":[2.4945012E3,1.714672E1,2.4773545E3,1.5151675E1,1.9950455E0,6.974312E0,2.4703801E3,9.47301E0,5.6786647E0,1.2478157E0,5.726496E0,4.018082E1,2.4301995E3],"tree_param":{"num_deleted":"0","num_feature":"21658","num_nodes":"13","size_leaf_vector":"1"}},{"base_weights":[6.6129223E-4,8.249328E-1,-2.7883272E-3,7.863919E-3,9.1726255E-1,-1.4179173E-1,-7.818893E-4,9.630161E-3,1.03362165E-1,-3.4556186E-4,9.747301E-2],"categories":[],"categories_nodes":[],"categories_segments":[],"categories_sizes":[],"default_left":[0,0,0,0,0,0,1,0,0,0,0],"id":83,"left_children":[1,3,5,-1,7,-1,9,-1,-1,-1,-1],"loss_changes":[7.0318556E0,6.3804436E-1,6.9919977E0,0E0,7.676587E-1,0E0,6.4207783E0,0E0,0E0,0E0,0E0],"parents":[2147483647,0,0,1,1,2,2,4,4,6,6],"right_children":[2,4,6,-1,8,-1,10,-1,-1,-1,-1],"split_conditions":[3.1013578E-1,1.8242043E-1,2.4200948E-1,7.863919E-3,2.6132727E-1,-1.4179173E-1,2.3956601E-1,9.630161E-3,1.03362165E-1,-3.4556186E-4,9.747301E-2],"split_indices":[10513,6441,3842,0,15213,0,8921,0,0,0,0],"split_type":[0,0,0,0,0,0,0,0,0,0,0],"sum_hessian":[2.4712158E3,9.306602E0,2.4619092E3,1.2284955E0,8.078106E0,2.4865353E0,2.4594229E3,1.2296989E0,6.8484073E0,2.453694E3,5.7287426E0],"tree_param":{"num_deleted":"0","num_feature":"21658","num_nodes":"11","size_leaf_vector":"1"}},{"base_weights":[-4.383188E-3,-7.2641973E-3,9.5326066E-1,-4.6505453E-3,-1.0432085E0,4.5510083E-1,1.1096849E-1,1.0990802E-1,-6.859517E-4,-1.3387758E-1,-5.890288E-2,5.90942E-2,1.1574488E-2],"categories":[],"categories_nodes":[],"categories_segments":[],"categories_sizes":[],"default_left":[1,1,0,0,0,0,0,0,0,0,0,0,0],"id":84,"left_children":[1,3,5,7,9,11,-1,-1,-1,-1,-1,-1,-1],"loss_changes":[6.8570447E0,6.7002163E0,7.58791E-2,6.0325036E0,4.7425747E-2,9.1870666E-2,0E0,0E0,0E0,0E0,0E0,0E0,0E0],"parents":[2147483647,0,0,1,1,2,2,3,3,4,4,5,5],"right_children":[2,4,6,8,10,12,-1,-1,-1,-1,-1,-1,-1],"split_conditions":[1.5995228E-1,2.1107262E-1,2.0163888E-1,4.76657E-1,2.4429522E-1,1.8172683E-1,1.1096849E-1,1.0990802E-1,-6.859517E-4,-1.3387758E-1,-5.890288E-2,5.90942E-2,1.1574488E-2],"split_indices":[13123,16027,13123,1020,16027,13123,0,0,0,0,0,0,0],"split_type":[0,0,0,0,0,0,0,0,0,0,0,0,0],"sum_hessian":[2.4818447E3,2.4753901E3,6.4546356E0,2.4701626E3,5.227646E0,2.476667E0,3.9779685E0,3.9420292E0,2.4662205E3,1.9869298E0,3.240716E0,1.2392449E0,1.237422E0],"tree_param":{"num_deleted":"0","num_feature":"21658","num_nodes":"13","size_leaf_vector":"1"}},{"base_weights":[1.6423112E-3,8.753892E-3,-5.4099184E-1,1.1073651E-2,-1.436891E-1,-6.120198E-1,6.7381114E-2,-1.4043613E-1,1.3212364E-3,3.04433E-2,-6.844235E-2],"categories":[],"categories_nodes":[],"categories_segments":[],"categories_sizes":[],"default_left":[1,1,1,0,0,0,0,0,0,0,0],"id":85,"left_children":[1,3,5,7,-1,9,-1,-1,-1,-1,-1],"loss_changes":[9.568431E0,8.222769E0,3.1800117E0,7.4179244E0,0E0,2.2539167E0,0E0,0E0,0E0,0E0,0E0],"parents":[2147483647,0,0,1,1,2,2,3,3,5,5],"right_children":[2,4,6,8,-1,10,-1,-1,-1,-1,-1],"split_conditions":[1.8764289E-1,1.8827957E-1,1.2716913E-1,8.553596E-1,-1.436891E-1,2.3025751E-1,6.7381114E-2,-1.4043613E-1,1.3212364E-3,3.04433E-2,-6.844235E-2],"split_indices":[21008,2954,12985,1568,0,19701,0,0,0,0,0],"split_type":[0,0,0,0,0,0,0,0,0,0,0],"sum_hessian":[2.477292E3,2.4462166E3,3.107542E1,2.4432883E3,2.928291E0,2.9827637E1,1.2477839E0,2.6970513E0,2.440591E3,1.9493262E0,2.7878311E1],"tree_param":{"num_deleted":"0","num_feature":"21658","num_nodes":"11","size_leaf_vector":"1"}},{"base_weights":[-8.118575E-3,-1.23846985E-1,-6.028913E-3,-2.8601966E-3,-8.133604E-1,-6.2056155E-5,-1.1149424E-1,-1.205292E-1,1.3327247E-2],"categories":[],"categories_nodes":[],"categories_segments":[],"categories_sizes":[],"default_left":[0,0,1,1,1,0,0,0,0],"id":86,"left_children":[1,-1,3,5,7,-1,-1,-1,-1],"loss_changes":[6.397744E0,0E0,6.362725E0,6.1745706E0,3.7683377E0,0E0,0E0,0E0,0E0],"parents":[2147483647,0,0,2,2,3,3,4,4],"right_children":[2,-1,4,6,8,-1,-1,-1,-1],"split_conditions":[4.910071E-1,-1.23846985E-1,2.5503722E-1,2.5097132E-1,2.2010249E-1,-6.2056155E-5,-1.1149424E-1,-1.205292E-1,1.3327247E-2],"split_indices":[9673,0,15717,9930,18565,0,0,0,0],"split_type":[0,0,0,0,0,0,0,0,0],"sum_hessian":[2.4903125E3,3.2192473E0,2.4870933E3,2.4783694E3,8.723873E0,2.4743867E3,3.9826376E0,5.9762874E0,2.7475858E0],"tree_param":{"num_deleted":"0","num_feature":"21658","num_nodes":"9","size_leaf_vector":"1"}},{"base_weights":[-5.783287E-4,-4.6470854E-1,7.6306057E-3,8.6221345E-2,-5.2340657E-1,3.59014E-3,6.271957E-1,-2.6268104E-2,-9.473811E-2,2.6821974E-5,7.426514E-2,7.182311E-2,-2.3657104E-2],"categories":[],"categories_nodes":[],"categories_segments":[],"categories_sizes":[],"default_left":[0,0,1,0,0,1,1,0,0,0,0,0,0],"id":87,"left_children":[1,3,5,-1,7,9,11,-1,-1,-1,-1,-1,-1],"loss_changes":[9.402733E0,3.7919235E0,6.068523E0,0E0,4.3602266E0,5.9175096E0,1.4049921E0,0E0,0E0,0E0,0E0,0E0,0E0],"parents":[2147483647,0,0,1,1,2,2,4,4,5,5,6,6],"right_children":[2,4,6,-1,8,10,12,-1,-1,-1,-1,-1,-1],"split_conditions":[2.4154738E-1,3.6956376E-1,1.9124511E-1,8.6221345E-2,1.7761283E-1,1.6980124E-1,1.7317119E-1,-2.6268104E-2,-9.473811E-2,2.6821974E-5,7.426514E-2,7.182311E-2,-2.3657104E-2],"split_indices":[20754,9135,6353,0,20754,18838,6210,0,0,0,0,0,0],"split_type":[0,0,0,0,0,0,0,0,0,0,0,0,0],"sum_hessian":[2.4659688E3,4.18904E1,2.4240784E3,1.1946775E0,4.0695724E1,2.4093716E3,1.4706813E1,2.6202137E1,1.4493587E1,2.3995864E3,9.785259E0,1.345702E1,1.2497922E0],"tree_param":{"num_deleted":"0","num_feature":"21658","num_nodes":"13","size_leaf_vector":"1"}},{"base_weights":[8.001485E-3,1.2208738E-1,5.4429937E-3,-1.0199257E0,8.223982E-3,-2.3940157E-2,-1.2959903E-1,1.0951343E-3,-1.0145853E-1],"categories":[],"categories_nodes":[],"categories_segments":[],"categories_sizes":[],"default_left":[0,0,0,0,1,0,0,0,0],"id":88,"left_children":[1,-1,3,5,7,-1,-1,-1,-1],"loss_changes":[7.692533E0,0E0,7.0713263E0,1.1350589E0,6.904643E0,0E0,0E0,0E0,0E0],"parents":[2147483647,0,0,2,2,3,3,4,4],"right_children":[2,-1,4,6,8,-1,-1,-1,-1],"split_conditions":[2.9925475E-1,1.2208738E-1,4.6863544E-1,2.0597884E-1,2.300687E-1,-2.3940157E-2,-1.2959903E-1,1.0951343E-3,-1.0145853E-1],"split_indices":[12481,0,19537,19537,16291,0,0,0,0],"split_type":[0,0,0,0,0,0,0,0,0],"sum_hessian":[2.4801057E3,4.2182693E0,2.4758875E3,5.7076006E0,2.47018E3,1.9791355E0,3.728465E0,2.4645974E3,5.582655E0],"tree_param":{"num_deleted":"0","num_feature":"21658","num_nodes":"9","size_leaf_vector":"1"}},{"base_weights":[5.5148783E-3,7.74958E-3,-1.18075185E-1,1.2099493E-2,-5.937576E-1,3.928025E-2,5.4113555E-4,-6.728571E-2,2.5564766E-2],"categories":[],"categories_nodes":[],"categories_segments":[],"categories_sizes":[],"default_left":[1,1,0,0,1,0,0,0,0],"id":89,"left_children":[1,3,-1,5,7,-1,-1,-1,-1],"loss_changes":[6.60109E0,6.50383E0,0E0,6.2770486E0,1.3711066E0,0E0,0E0,0E0,0E0],"parents":[2147483647,0,0,1,1,3,3,4,4],"right_children":[2,4,-1,6,8,-1,-1,-1,-1],"split_conditions":[2.4756008E-1,1.8818969E-1,-1.18075185E-1,2.1036796E-1,1.5816739E-1,3.928025E-2,5.4113555E-4,-6.728571E-2,2.5564766E-2],"split_indices":[7986,7015,0,8109,9975,0,0,0,0],"split_type":[0,0,0,0,0,0,0,0,0],"sum_hessian":[2.4856309E3,2.481949E3,3.6820548E0,2.465102E3,1.6846966E1,4.15622E1,2.4235398E3,1.56019125E1,1.2450532E0],"tree_param":{"num_deleted":"0","num_feature":"21658","num_nodes":"9","size_leaf_vector":"1"}},{"base_weights":[-4.2834105E-3,-1.1271097E-1,-1.759095E-3,-6.3945637E-3,5.968933E-1,-3.9998448E-4,-1.04063295E-1,7.1387984E-2,-6.0833063E-2],"categories":[],"categories_nodes":[],"categories_segments":[],"categories_sizes":[],"default_left":[0,0,1,1,1,0,0,0,0],"id":90,"left_children":[1,-1,3,5,7,-1,-1,-1,-1],"loss_changes":[7.088356E0,0E0,6.932938E0,6.134991E0,3.140864E0,0E0,0E0,0E0,0E0],"parents":[2147483647,0,0,2,2,3,3,4,4],"right_children":[2,-1,4,6,8,-1,-1,-1,-1],"split_conditions":[2.533815E-1,-1.1271097E-1,1.6004463E-1,2.4810143E-1,1.6298941E-1,-3.9998448E-4,-1.04063295E-1,7.1387984E-2,-6.0833063E-2],"split_indices":[14773,0,334,2186,14937,0,0,0,0],"split_type":[0,0,0,0,0,0,0,0,0],"sum_hessian":[2.5005593E3,4.6097775E0,2.4959495E3,2.4777532E3,1.8196352E1,2.473031E3,4.722292E0,1.6957983E1,1.2383691E0],"tree_param":{"num_deleted":"0","num_feature":"21658","num_nodes":"9","size_leaf_vector":"1"}},{"base_weights":[3.5710672E-3,1.20165564E-1,1.0371624E-3,-9.201152E-1,4.0936144E-3,2.9102344E-2,-1.17994905E-1,1.2042605E-1,1.6902214E-4],"categories":[],"categories_nodes":[],"categories_segments":[],"categories_sizes":[],"default_left":[0,0,0,0,0,0,0,0,0],"id":91,"left_children":[1,-1,3,5,7,-1,-1,-1,-1],"loss_changes":[7.4950924E0,0E0,6.9440837E0,2.9102583E0,7.0877643E0,0E0,0E0,0E0,0E0],"parents":[2147483647,0,0,2,2,3,3,4,4],"right_children":[2,-1,4,6,8,-1,-1,-1,-1],"split_conditions":[2.761493E-1,1.20165564E-1,3.3537456E-1,1.368468E-1,9.999759E-1,2.9102344E-2,-1.17994905E-1,1.2042605E-1,1.6902214E-4],"split_indices":[21238,0,116,9975,16685,0,0,0,0],"split_type":[0,0,0,0,0,0,0,0,0],"sum_hessian":[2.4682861E3,4.210564E0,2.4640757E3,7.156684E0,2.456919E3,1.2429596E0,5.9137244E0,3.9108608E0,2.453008E3],"tree_param":{"num_deleted":"0","num_feature":"21658","num_nodes":"9","size_leaf_vector":"1"}},{"base_weights":[-8.42093E-3,-1.3271958E-1,-6.3168993E-3,9.543633E-1,-9.942117E-3,1.0500359E-1,1.8553535E-2,-6.3595886E-4,-7.377961E-2],"categories":[],"categories_nodes":[],"categories_segments":[],"categories_sizes":[],"default_left":[0,0,0,1,1,0,0,0,0],"id":92,"left_children":[1,-1,3,5,7,-1,-1,-1,-1],"loss_changes":[6.8819923E0,0E0,8.647558E0,4.9180698E-1,6.4410944E0,0E0,0E0,0E0,0E0],"parents":[2147483647,0,0,2,2,3,3,4,4],"right_children":[2,-1,4,6,8,-1,-1,-1,-1],"split_conditions":[1.3321241E0,-1.3271958E-1,4.0833208E-1,1.4445159E-1,1.82073E-1,1.0500359E-1,1.8553535E-2,-6.3595886E-4,-7.377961E-2],"split_indices":[3627,0,21238,12985,5507,0,0,0,0],"split_type":[0,0,0,0,0,0,0,0,0],"sum_hessian":[2.4822483E3,2.9507895E0,2.4792974E3,8.334762E0,2.4709626E3,7.0870867E0,1.2476748E0,2.4598638E3,1.109882E1],"tree_param":{"num_deleted":"0","num_feature":"21658","num_nodes":"9","size_leaf_vector":"1"}},{"base_weights":[-7.281822E-3,9.2602754E-1,-1.0204704E-2,2.794382E-2,9.884909E-2,-1.2723975E-1,-8.171285E-3,-1.2230087E-3,6.0427446E-2],"categories":[],"categories_nodes":[],"categories_segments":[],"categories_sizes":[],"default_left":[0,0,0,0,0,0,1,0,0],"id":93,"left_children":[1,3,5,-1,-1,-1,7,-1,-1],"loss_changes":[6.782338E0,3.7271976E-2,6.344451E0,0E0,0E0,0E0,6.154852E0,0E0,0E0],"parents":[2147483647,0,0,1,1,2,2,6,6],"right_children":[2,4,6,-1,-1,-1,8,-1,-1],"split_conditions":[1.1378161E0,1.9574837E-1,2.0849618E-1,2.794382E-2,9.884909E-2,-1.2723975E-1,1.7321885E-1,-1.2230087E-3,6.0427446E-2],"split_indices":[16584,18710,11790,0,0,0,18589,0,0],"split_type":[0,0,0,0,0,0,0,0,0],"sum_hessian":[2.4817734E3,6.7620244E0,2.4750115E3,1.0778893E0,5.684135E0,2.9760263E0,2.4720354E3,2.4567341E3,1.5301246E1],"tree_param":{"num_deleted":"0","num_feature":"21658","num_nodes":"9","size_leaf_vector":"1"}},{"base_weights":[-8.11209E-3,-3.0274054E-3,-5.1228434E-1,-5.275994E-3,1.1534646E0,-7.838621E-1,2.848413E-1,-1.2477358E-1,-3.2917556E-4,1.4211068E-1,2.241925E-2,-9.132332E-2,3.7457987E-3,1.0054089E-1,-5.0592747E-2],"categories":[],"categories_nodes":[],"categories_segments":[],"categories_sizes":[],"default_left":[1,1,0,0,0,1,0,0,0,0,0,0,0,0,0],"id":94,"left_children":[1,3,5,7,9,11,13,-1,-1,-1,-1,-1,-1,-1,-1],"loss_changes":[6.325105E0,6.362391E0,5.5563126E0,6.0126424E0,8.62236E-1,2.014947E0,4.4936934E0,0E0,0E0,0E0,0E0,0E0,0E0,0E0,0E0],"parents":[2147483647,0,0,1,1,2,2,3,3,4,4,5,5,6,6],"right_children":[2,4,6,8,10,12,14,-1,-1,-1,-1,-1,-1,-1,-1],"split_conditions":[1.990297E-1,2.4447218E-1,3.020191E-1,1.3321241E0,3.1813982E-1,1.8607876E-1,3.654217E-1,-1.2477358E-1,-3.2917556E-4,1.4211068E-1,2.241925E-2,-9.132332E-2,3.7457987E-3,1.0054089E-1,-5.0592747E-2],"split_indices":[9970,1492,9970,3627,1492,2136,9970,0,0,0,0,0,0,0,0],"split_type":[0,0,0,0,0,0,0,0,0,0,0,0,0,0,0],"sum_hessian":[2.4669214E3,2.4432864E3,2.3635056E1,2.4395386E3,3.747802E0,1.7641352E1,5.9937057E0,2.8887403E0,2.4366497E3,2.4988368E0,1.2489653E0,1.5144017E1,2.4973338E0,2.9940355E0,2.99967E0],"tree_param":{"num_deleted":"0","num_feature":"21658","num_nodes":"15","size_leaf_vector":"1"}},{"base_weights":[-1.8298462E-2,-1.3564897E-1,-1.6015263E-2,-1.1055363E-2,-6.16848E-1,-1.3303624E-3,1.218363E-1,-7.385268E-2,6.800168E-2],"categories":[],"categories_nodes":[],"categories_segments":[],"categories_sizes":[],"default_left":[0,0,1,1,1,0,0,0,0],"id":95,"left_children":[1,-1,3,5,7,-1,-1,-1,-1],"loss_changes":[7.514273E0,0E0,7.3339834E0,6.7719636E0,3.6818843E0,0E0,0E0,0E0,0E0],"parents":[2147483647,0,0,2,2,3,3,4,4],"right_children":[2,-1,4,6,8,-1,-1,-1,-1],"split_conditions":[1.077673E0,-1.3564897E-1,1.6892084E-1,2.0500109E-1,2.6493236E-1,-1.3303624E-3,1.218363E-1,-7.385268E-2,6.800168E-2],"split_indices":[4149,0,16916,9524,21208,0,0,0,0],"split_type":[0,0,0,0,0,0,0,0,0],"sum_hessian":[2.465488E3,3.1891625E0,2.4622988E3,2.443149E3,1.9149899E1,2.4396765E3,3.4723032E0,1.7900873E1,1.2490267E0],"tree_param":{"num_deleted":"0","num_feature":"21658","num_nodes":"9","size_leaf_vector":"1"}},{"base_weights":[1.401844E-2,1.2018557E-2,1.254814E-1,1.4290251E-2,-1.0321292E0,1.7626196E-3,-6.9278754E-2,-5.209261E-2,-1.2838264E-1],"categories":[],"categories_nodes":[],"categories_segments":[],"categories_sizes":[],"default_left":[1,1,0,1,0,0,0,0,0],"id":96,"left_children":[1,3,-1,5,7,-1,-1,-1,-1],"loss_changes":[6.1563063E0,5.906808E0,0E0,5.8610606E0,2.6837349E-2,0E0,0E0,0E0,0E0],"parents":[2147483647,0,0,1,1,3,3,4,4],"right_children":[2,4,-1,6,8,-1,-1,-1,-1],"split_conditions":[2.6729962E-1,3.0893615E-1,1.254814E-1,2.4413328E-1,5.2174044E-1,1.7626196E-3,-6.9278754E-2,-5.209261E-2,-1.2838264E-1],"split_indices":[13077,14462,0,5596,14462,0,0,0,0],"split_type":[0,0,0,0,0,0,0,0,0],"sum_hessian":[2.4860137E3,2.4830212E3,2.9923837E0,2.478615E3,4.4062696E0,2.4679465E3,1.0668534E1,2.4664676E0,1.9398019E0],"tree_param":{"num_deleted":"0","num_feature":"21658","num_nodes":"9","size_leaf_vector":"1"}},{"base_weights":[3.9547016E-3,-8.4702665E-1,7.303688E-3,-2.007996E-2,-9.3437755E-1,-1.3955404E-1,9.277249E-3,-1.0579878E-1,-2.1145573E-2,1.1042194E-3,-1.3466702E-1],"categories":[],"categories_nodes":[],"categories_segments":[],"categories_sizes":[],"default_left":[0,0,0,0,1,0,1,0,0,0,0],"id":97,"left_children":[1,3,5,-1,7,-1,9,-1,-1,-1,-1],"loss_changes":[7.071955E0,3.6147308E-1,6.852918E0,0E0,5.175595E-1,0E0,5.921407E0,0E0,0E0,0E0,0E0],"parents":[2147483647,0,0,1,1,2,2,4,4,6,6],"right_children":[2,4,6,-1,8,-1,10,-1,-1,-1,-1],"split_conditions":[4.420217E-1,1.284187E-1,1.235339E0,-2.007996E-2,1.9320741E-1,-1.3955404E-1,2.662408E-1,-1.0579878E-1,-2.1145573E-2,1.1042194E-3,-1.3466702E-1],"split_indices":[16009,18710,668,0,18710,0,13472,0,0,0,0],"split_type":[0,0,0,0,0,0,0,0,0,0,0],"sum_hessian":[2.4782822E3,8.727369E0,2.4695547E3,1.4320146E0,7.295355E0,2.477367E0,2.4670774E3,5.8342805E0,1.4610741E0,2.4648608E3,2.216487E0],"tree_param":{"num_deleted":"0","num_feature":"21658","num_nodes":"11","size_leaf_vector":"1"}},{"base_weights":[8.851879E-3,-1.2124514E-1,1.1539104E-2,1.3837325E-2,-1.1990032E-1,1.7467613E-3,-6.7476265E-2],"categories":[],"categories_nodes":[],"categories_segments":[],"categories_sizes":[],"default_left":[0,0,1,1,0,0,0],"id":98,"left_children":[1,-1,3,5,-1,-1,-1],"loss_changes":[8.118108E0,0E0,6.874156E0,6.164359E0,0E0,0E0,0E0],"parents":[2147483647,0,0,2,2,3,3],"right_children":[2,-1,4,6,-1,-1,-1],"split_conditions":[3.8866606E-1,-1.2124514E-1,1.9785833E-1,1.6907467E-1,-1.1990032E-1,1.7467613E-3,-6.7476265E-2],"split_indices":[13697,0,14961,3034,0,0,0],"split_type":[0,0,0,0,0,0,0],"sum_hessian":[2.4683242E3,4.430737E0,2.4638936E3,2.4602114E3,3.6821547E0,2.4482786E3,1.1932648E1],"tree_param":{"num_deleted":"0","num_feature":"21658","num_nodes":"7","size_leaf_vector":"1"}},{"base_weights":[-3.7530325E-3,-7.6848553E-3,7.222936E-1,-1.4068301E-1,-5.7127234E-3,1.116712E0,2.3013908E-1,1.08212985E-1,-7.8909745E-4,1.653418E-2,1.2839337E-1,-1.6626848E-2,1.19269684E-1],"categories":[],"categories_nodes":[],"categories_segments":[],"categories_sizes":[],"default_left":[1,0,0,0,0,0,0,0,0,0,0,0,0],"id":99,"left_children":[1,3,5,-1,7,9,11,-1,-1,-1,-1,-1,-1],"loss_changes":[7.0993853E0,6.8145595E0,2.3432002E0,0E0,5.8616896E0,9.2939377E-1,2.9527583E0,0E0,0E0,0E0,0E0,0E0,0E0],"parents":[2147483647,0,0,1,1,2,2,4,4,5,5,6,6],"right_children":[2,4,6,-1,8,10,12,-1,-1,-1,-1,-1,-1],"split_conditions":[1.284246E-1,2.1829355E-1,2.124004E-1,-1.4068301E-1,2.9925475E-1,1.7330816E-1,3.6078438E-1,1.08212985E-1,-7.8909745E-4,1.653418E-2,1.2839337E-1,-1.6626848E-2,